154 100
finns 0.441292 -0.383583 -0.220856 -1.216647 0.266973 -0.424454 -0.498957 -0.067144 -1.338544 -0.603347 -0.126653 -0.184763 -0.274857 0.282412 -0.158450 0.136911 -0.327510 0.762032 -1.031033 -0.118306 0.424963 -0.367869 -0.503192 -0.363996 -0.191563 0.805888 -0.935574 -0.295773 -0.391159 -0.666949 -0.075689 0.241422 0.409590 0.145049 -0.058674 -0.018860 0.256065 -0.560007 0.838765 0.095552 0.168707 -0.313624 -0.069550 -0.691070 0.052654 -0.974517 0.539852 0.053858 -0.088879 0.152391 -0.055511 0.893192 -0.686677 -0.594447 -0.215287 0.407570 -0.803695 -0.236078 -0.706824 0.131178 -0.357179 0.382307 -0.994379 0.403895 -0.726417 0.367932 -0.722644 -0.447953 0.424667 -0.300592 0.822562 -0.155888 0.209009 -0.660434 -0.654371 0.101095 -0.184390 0.346897 0.670681 0.020319 0.191191 0.704913 -0.285268 -0.707609 0.597636 -0.054967 0.054547 0.465294 -0.023422 0.417421 0.257196 0.568929 -0.194184 0.395052 0.479685 -0.148068 0.252871 -0.630904 0.118202 -0.224713
samt 0.499008 -0.259540 -0.361686 -0.536091 0.031168 0.018792 -0.418154 0.196051 -0.835749 -0.548595 -0.266604 -0.205772 -0.426887 0.258722 -0.224865 -0.025486 -0.244812 0.627377 -0.989450 0.055416 -0.272960 -0.587232 0.176786 -0.527856 -0.084857 0.843921 -0.578323 0.589345 -0.466365 -0.221979 -0.248504 0.105832 0.150209 0.834321 -0.232073 -0.303867 0.093751 -0.110099 0.276321 0.768026 0.418897 -0.438545 0.364390 0.153975 0.138382 -0.951825 -0.149660 0.031817 0.045976 -0.442858 0.022289 0.829320 -0.464508 -0.261889 -0.169116 0.344447 -0.047858 0.484796 -1.015467 -0.105056 -0.705535 -0.316753 -0.887309 0.420218 -0.046150 0.032814 -0.101564 0.088443 0.269017 -0.123143 1.255063 0.122835 0.341660 0.082318 0.278222 -0.158653 0.028596 0.294757 0.912233 0.230289 -0.369398 -0.034414 0.028717 -0.347272 0.443868 -0.124697 -0.080030 0.172582 0.328594 0.223398 0.233990 0.137175 -1.140609 0.045113 0.494952 -0.382545 -0.116252 -0.335936 0.212755 -1.070901
koek 0.417030 0.065128 -0.981836 -0.168091 0.564804 0.527694 0.504926 0.836861 0.186488 -0.385257 -0.525942 0.043381 0.605371 0.261535 -0.155768 0.120208 0.594636 0.053922 -0.684646 0.133359 -1.977528 -1.090591 0.582212 -1.263887 -0.165323 0.042921 0.458056 0.802487 -0.062884 -0.668696 -0.557255 -0.038136 0.346102 0.633564 -0.520327 -0.618751 0.079133 0.229154 0.183199 1.003899 -0.123746 -0.430467 1.236258 0.469599 -0.082719 -0.402024 -0.550319 0.686625 -0.452195 -0.952088 -0.013842 0.065302 -0.191780 -0.442371 -0.289015 0.574919 0.568687 1.227952 -1.377878 0.125891 -1.546256 0.135602 -0.663134 0.627040 1.065058 -0.029671 0.862297 0.280452 -0.223562 0.147929 1.267936 -0.525501 -0.608308 1.656765 0.820165 -1.618481 0.765858 -0.096677 0.357341 -0.184556 -0.582527 -0.450673 0.863700 0.211463 -0.550920 -0.168099 -0.608571 -0.852275 0.477240 -0.254039 -0.089470 0.908411 -0.718277 -0.540276 0.629288 -0.488220 -0.010977 -0.380673 0.586874 -0.907085
balkong -0.241570 0.599746 -0.349570 -0.549149 0.236160 -0.369842 -0.900642 0.765124 -0.067526 -0.414374 0.015060 0.097419 0.863092 0.774632 -0.210949 0.370915 -0.343612 0.120579 0.764497 -0.497197 -0.938461 -0.200872 1.184823 0.074203 0.032976 -0.474201 0.104773 0.015510 0.405759 -0.058311 -0.196971 -0.570737 0.413530 0.656413 -0.100792 -0.467443 0.619021 -0.322954 0.296635 -0.178588 0.515717 -0.063367 0.032316 0.565474 -0.375217 -0.248866 -0.423082 -0.454533 -0.369286 -0.053742 0.662727 -0.185198 -0.158131 -0.815791 0.572179 0.302829 0.706326 0.299495 -0.586975 0.417611 0.031139 -0.775220 0.063827 0.159962 0.413093 -0.774564 0.292439 0.116702 -0.222561 -0.533098 0.358926 -0.606043 -0.191344 0.925890 0.454043 -1.145349 0.495585 -0.143305 -0.264229 0.406325 0.922822 -0.996897 0.299886 0.354070 -0.344296 -0.968226 0.154711 -0.818003 1.071470 -0.479648 0.480212 0.629673 -0.658059 -0.469935 0.984213 -0.163731 -0.425962 -0.338623 0.146440 -0.465530
vaelkommen -0.327970 -0.007028 0.743860 0.657957 0.070302 -0.704195 0.241551 -1.016120 0.231878 -0.370361 0.672595 0.853041 -0.425778 0.206438 -0.246172 -0.067909 -0.596946 -0.563210 0.019985 -0.558339 1.058251 -0.038628 0.303915 -0.087864 0.043168 -0.508622 0.599182 -0.426199 -1.141871 0.362005 -0.170278 -0.489651 0.516672 -0.363847 0.049412 0.248773 -0.307889 -0.248498 0.559822 0.527978 -0.202808 0.865105 -0.524957 0.165245 0.086433 -0.165581 -0.614628 -0.317142 0.314660 -0.326879 -0.196410 -0.075466 1.555341 0.390157 -0.049241 0.628551 0.411671 -0.325373 0.323158 0.151248 0.512423 0.321886 0.501550 -0.224873 -0.553835 -0.412741 0.643847 0.803746 -0.018536 0.655696 -0.212765 0.533380 -0.105988 0.051182 -0.152243 -0.401308 0.147727 0.623439 -0.488735 0.036357 0.041370 -0.562483 0.169902 0.120036 0.441527 0.499747 -0.167576 0.173499 -0.358333 0.415359 -0.280969 -0.360443 0.534531 -0.336984 -0.808273 0.361942 0.052441 -0.092245 0.133137 0.557765
laegenheten -0.183290 -0.250368 -0.334630 -0.641826 0.153423 -0.033199 -0.319378 -0.066563 0.460335 -0.103665 0.331647 -0.458791 0.060465 -0.070524 0.251862 -0.161786 -0.049409 0.185247 -0.310934 -0.336029 -0.658522 -0.599736 0.139099 -0.350283 -0.192939 0.200659 -0.135339 0.315429 0.058234 -0.137816 0.109453 0.010676 -0.199914 0.247622 -0.299310 -0.264952 0.309836 0.175618 -0.288420 0.338606 0.397022 -0.190231 0.607898 0.093059 -0.365543 0.095238 -0.049763 -0.002270 0.298157 -0.153688 -0.149717 0.108779 -0.269516 -0.184665 -0.040605 0.023910 0.342651 0.307191 -0.387300 0.202583 -0.448130 -0.351789 -0.289971 0.084481 0.359485 0.165147 0.611099 0.040234 0.071288 -0.262585 0.003045 -0.365954 -0.175901 0.356484 0.697526 -0.239876 -0.129644 0.102036 0.158298 0.241634 0.412535 -0.134172 0.192111 0.008995 0.127779 -0.317050 0.393655 0.102275 0.738605 -0.213612 -0.151862 0.468930 -0.305584 -0.324801 0.710412 -0.248016 0.040622 -0.501386 -0.305282 -0.463943
badrum 0.057442 0.400192 -0.457426 -0.069507 -0.097931 0.349248 -0.505180 0.864147 0.145430 -0.661974 -0.280834 -0.526442 -0.392962 0.645944 0.594513 0.310821 -0.043776 1.038628 -0.705906 0.943349 -1.716310 -1.512254 0.746786 -0.810857 0.539914 0.417847 0.117050 1.002892 -0.122461 0.061360 0.396798 -0.111444 -0.217282 1.175666 -0.095403 -0.523257 -0.110231 -0.280998 0.357971 0.617924 0.379184 -0.829001 0.293446 1.759968 -0.055610 -0.205698 -0.365562 0.704185 0.117449 -1.040901 -0.477893 0.352068 0.132174 -0.003637 -0.413380 1.012028 -0.151067 1.040659 -0.825712 -0.099073 -0.454378 -0.603147 -0.705228 1.167734 0.923774 -0.071205 0.121904 0.735595 1.091670 0.384377 1.309838 -0.166885 -0.099786 0.420686 0.113510 -0.061322 0.673172 -0.160129 0.649299 -0.078365 -0.550341 -1.228590 0.799518 0.539091 -0.411075 -0.648749 0.391959 0.196712 1.729148 0.667595 0.693382 0.673906 -1.537157 -1.234536 0.784779 -0.382806 -0.107381 -0.703787 0.651246 -1.149962
laege -0.239888 0.287134 0.130541 0.065778 0.025316 -0.150588 -0.330024 0.065221 0.288422 0.160041 0.264322 -0.262718 -0.049696 0.144934 -0.138164 0.363764 0.135403 -0.010358 -0.344348 0.105001 0.305090 -0.053722 0.113471 -0.079304 0.847703 0.127011 -0.953572 -0.037394 0.234249 -0.076138 -0.142616 0.197247 -0.449095 0.085409 -0.114542 -0.692607 0.834984 -0.068916 0.483441 -0.498610 0.097447 -0.339778 0.404096 0.753355 0.478029 -0.268966 -1.017079 -0.576934 -0.782025 -0.435699 -0.157899 -0.019880 -0.455844 0.238062 -0.044503 -0.608155 -0.183793 -0.134864 -0.098061 0.031650 -0.123658 0.121792 0.018686 -0.136585 -0.064980 -0.210757 0.635282 0.050769 -0.442740 -0.309805 0.041660 0.038963 0.738972 0.633898 0.128012 -0.054085 0.103252 -0.252628 -0.617423 0.768983 0.195920 -0.159413 -0.131883 0.199942 -0.283803 -0.219457 0.105651 -0.289224 0.170876 0.189090 -0.310234 -0.593219 0.146527 -0.089974 -0.373466 0.529111 -0.519167 -0.257543 0.511437 0.807149
tvaa -0.159268 0.330432 -0.332545 -0.365628 0.593581 -0.131362 0.107591 0.163251 -0.408573 0.024804 -0.696675 -0.052624 0.960891 -0.186317 -0.242139 0.036208 0.479175 0.080371 -0.809387 -0.231000 -1.088239 -0.898259 0.471738 -0.327779 -0.379599 -0.036201 -0.322172 0.460027 -0.378177 -0.742660 -0.188785 0.167930 0.067358 0.820599 -0.670126 -0.543161 -0.062420 0.092232 0.284981 0.320149 -0.364779 -0.451395 0.578506 1.134670 0.212603 -1.013094 -0.179230 0.371768 0.198883 -0.681959 0.709704 0.633919 -0.402601 -0.565965 0.434734 0.265513 0.366044 0.797781 -0.891527 0.000234 -0.626001 0.139973 -0.763309 0.727166 0.287328 0.013438 0.127656 0.064954 -0.558848 -0.324091 0.929497 -0.692167 -0.043564 0.021937 0.362479 -1.481225 0.300930 0.134062 0.734961 0.605810 -0.580621 0.111666 1.142801 0.704585 0.052393 -0.746051 0.133159 -0.286321 0.599455 -0.202667 -0.965778 1.013618 -0.525294 -0.145211 1.328863 -0.658289 0.251470 -0.546517 -0.062801 -0.569395
sovrum 1.144567 -0.025880 0.197297 0.007277 0.703199 0.358103 -0.636168 0.589990 -0.276598 -1.246618 -1.049817 -0.346409 0.839507 0.031297 0.743260 -0.404326 0.538039 0.537838 -0.223520 -0.007322 -1.524487 -1.690280 0.510808 -0.613891 -0.019270 0.800725 0.397524 1.463611 -0.413030 -0.424443 -0.597280 -0.060464 -0.201339 0.466383 -0.199124 -0.514263 -0.038337 -0.078691 0.276442 0.591457 -0.212201 -0.581123 1.357506 1.248867 0.353863 -1.133971 -0.095845 0.812988 0.342901 -1.004478 0.949371 0.681946 -0.353132 -0.318517 0.295929 0.132610 0.341358 1.722664 -0.950183 0.340798 -1.162833 -0.226981 -0.849322 1.073167 1.127975 0.221849 0.113275 0.466040 0.462678 -0.334820 1.437092 -0.259727 -0.835708 0.437618 1.037887 -1.214429 0.331056 0.233407 0.907476 -0.071809 -1.144806 -0.703584 0.544379 -0.308239 -0.801429 -0.673993 0.133425 -0.627527 0.689411 0.075783 0.051510 0.167044 -1.904721 -0.648738 0.950190 -0.374080 -0.239919 -0.916499 0.383034 -1.149527
a 0.066751 0.309181 -0.550789 0.028794 0.116104 -0.689806 0.351243 0.040945 0.328893 0.362488 0.510310 -0.117934 0.014152 -0.186265 -0.061479 -0.026184 0.259625 -0.402727 0.434892 -0.047211 -0.674008 0.359886 0.376343 -0.043356 0.344872 -0.795327 0.492705 -0.263915 0.518278 0.162011 -0.349942 -0.088922 -0.194245 -0.051032 -0.217856 -0.246190 0.462883 0.239753 0.070867 -0.049547 0.055723 0.056221 0.140371 1.023938 0.037287 0.719714 -0.495437 0.003436 0.229130 -0.276561 -0.148327 -0.249684 0.018714 -0.264555 0.250744 0.031494 0.251398 -0.082315 0.305723 0.302411 0.148921 -0.114582 0.248764 -0.623991 0.255034 -0.102343 0.834144 0.015533 -0.157439 0.069229 -0.426002 -0.425898 -0.293629 0.414885 0.144049 -0.135807 0.315240 -0.118296 -0.401907 0.206648 0.147413 -0.600959 0.241044 0.152633 -0.359544 -0.286714 0.382600 -0.391381 0.517937 -0.007958 -0.106302 0.510551 0.038327 -0.410913 -0.270011 0.093380 0.278289 0.021445 -0.284150 0.495644
bra 0.371294 -0.131800 -0.432964 0.036584 -0.179162 0.177844 -0.331074 0.228311 -0.740962 -0.597539 -0.340305 -0.344738 -0.015965 -0.000386 -0.499469 -0.158893 -0.262598 0.500634 -0.163988 -0.442077 -0.317836 -0.313035 0.685797 0.177548 0.220478 0.395193 0.004015 0.359836 0.152639 0.007235 -0.087124 0.180996 -0.149994 0.940316 0.042820 -0.555661 0.175416 0.135413 0.013669 0.746829 -0.264924 -0.180825 0.454691 0.430016 0.642325 -1.142823 -0.363139 0.083566 0.224224 -0.235114 -0.165096 0.581008 -0.548318 -0.274130 -0.057196 0.290985 -0.037928 0.261566 -0.904697 0.207113 -0.336061 -0.394306 -0.076415 0.050427 0.089771 -0.251617 0.218385 0.514893 0.187045 -0.049662 0.446018 0.143335 0.592347 0.418141 0.723325 0.151391 -0.148923 -0.124468 0.659465 0.621973 0.088485 -0.233253 0.312751 -0.384024 0.327602 -0.140458 -0.152414 0.107242 0.700633 0.317913 0.679311 0.337015 -0.646076 0.275296 0.075192 -0.686932 -0.359354 -0.027891 0.309946 -0.721018
planloesning 0.436303 -0.348438 -0.341955 -0.557487 1.042015 0.539025 -0.358639 -0.298948 0.752650 -0.276470 -0.546357 0.250050 0.339151 -0.063204 0.380384 -0.453227 -0.003045 -0.274524 0.134342 0.792794 -2.135874 -0.907045 0.950867 -1.570626 -0.256405 -0.472199 -0.169390 0.728374 -0.079780 -0.213661 -0.314601 0.502772 0.188683 0.240698 -0.468413 -0.355528 0.658193 0.079610 -0.475803 -0.254303 0.013264 0.285937 0.330041 0.967740 -0.096942 0.827352 -0.692338 0.549741 -0.546165 -0.864269 0.056298 0.352826 -0.186646 -0.009925 0.915315 -0.219627 0.424701 1.061606 -0.418139 -0.108024 -0.311169 -0.665286 -0.571047 0.237061 0.607956 -0.295169 1.118518 0.474573 -0.907179 -0.660902 0.363196 -0.313537 -1.015947 1.337078 0.277488 -1.407626 0.661223 0.350396 0.214977 0.798013 -0.222230 -0.360942 0.125142 0.620546 -0.630997 -0.865516 0.154692 -0.620395 0.853411 -0.530717 -0.170760 0.241081 -1.482225 -0.956728 1.138683 -0.590859 0.340277 -0.295118 0.712190 -0.878999
vardagsrum 0.845349 -0.042814 -0.446468 -0.407712 0.698293 -0.030126 -0.443197 0.387157 -0.605860 -0.622662 -1.338202 -1.189842 0.936017 0.352726 0.037369 0.143621 -0.627596 0.315526 -0.180225 0.720233 -1.697747 -1.001137 1.239716 -0.089456 0.069326 0.784873 0.190474 0.722743 0.200751 -1.188469 0.350988 0.136135 -0.109221 1.361582 -0.370132 -1.074645 -0.151041 0.187572 -0.594920 0.486603 0.475759 0.023843 1.481753 1.446568 0.025329 -0.561272 -0.578513 -0.037370 0.524097 -0.668775 0.597340 0.848294 -0.078203 0.059278 1.056738 -0.123756 0.661732 1.601778 -0.355835 0.541489 -1.270210 -1.691303 -1.020593 0.680180 0.486080 -0.387650 0.663201 0.417870 0.691530 0.050897 1.523745 -0.372958 -0.749984 0.579007 0.435095 -0.854929 0.393759 -0.033041 0.771918 0.527995 -1.118843 -1.136350 -0.199603 0.199336 -0.487865 -0.962392 0.276130 -0.877903 1.947869 -0.201236 -0.228748 0.729079 -2.150960 -0.456824 1.611374 -0.458926 -0.111752 -0.792922 0.373922 -1.240041
naerhet -0.362450 0.028596 0.385026 0.133212 -0.880115 -0.169367 -0.368344 -0.078144 -0.882305 -0.544247 0.050207 0.364400 -1.015526 0.078916 -1.241481 0.262830 -1.169888 0.262605 0.114876 -0.342751 0.870671 1.052773 0.382749 0.662749 0.570971 0.785607 -0.859742 0.251796 0.173276 0.393776 -0.109481 -0.311366 0.345424 0.391121 0.355410 -0.351541 0.350779 0.122813 0.050384 0.259651 -0.207835 0.096695 -0.433544 0.124648 0.824625 -1.533064 0.147333 -0.615201 -0.222872 0.302230 -0.585383 -0.072382 -0.698421 0.142856 -0.304465 -0.002171 -0.380020 -0.009184 -0.112359 0.670460 -0.038282 0.560257 0.438051 -0.113029 -0.981761 0.195870 -0.816747 -0.297727 -0.068863 -0.010497 -0.089299 0.595942 1.311018 -0.119008 -0.159870 0.599502 -0.671577 0.081166 0.015208 -0.053691 -0.304879 0.129482 -0.146795 -0.509250 0.683076 0.185518 -0.178051 -0.402634 -0.590181 0.358909 0.276515 -0.572007 -0.453691 0.252228 -0.594953 -0.152516 0.073914 0.222535 0.837242 0.194765
ligger 0.385651 -0.417944 -0.251915 -0.975573 0.175421 -0.270675 -0.231691 0.039375 -0.424675 -0.844572 0.460623 -0.665152 -0.776720 -0.131244 -0.557965 0.319629 -0.338071 0.010288 -0.393835 -0.217908 0.397609 0.181090 -0.445526 -0.669996 0.287309 0.731488 -1.372700 -0.200125 -0.328481 -0.624019 -0.424118 0.175242 0.344518 0.288758 0.115225 0.178787 0.620879 -0.642994 1.167401 -0.063975 0.520956 -0.221388 0.340472 -0.461934 -0.703663 -0.735513 -0.275586 -0.125749 -0.124239 0.505242 -0.306511 0.497659 -0.852872 0.397819 0.015051 -0.592209 -0.692891 -0.218185 -0.090233 0.238088 -0.393853 0.201978 -0.812380 -0.063011 -0.577677 0.544890 -0.161016 -0.530022 0.147278 -0.852668 -0.072923 0.161119 0.274232 -0.551086 0.064602 -0.126378 -0.028219 0.634473 -0.071665 0.919607 0.096548 0.184701 -0.422437 -0.192539 0.929345 -0.141304 0.302960 0.637834 -0.356926 0.385723 -0.228899 -0.000258 -0.063576 0.699898 0.367193 0.233908 0.394036 -0.184329 0.049203 0.352997
visning 0.307684 -0.147854 0.301396 0.221034 0.042418 0.067757 0.658672 -0.523404 0.009633 1.032809 0.439517 0.484485 0.428905 -0.553479 -0.477053 -0.903700 0.278546 0.246591 0.728338 0.293235 0.650495 1.570467 -0.821076 1.316799 0.223878 0.356762 0.122536 -0.088698 -0.585089 1.052302 -0.533671 0.051419 0.018631 0.044123 0.361605 0.874928 -0.622925 0.301142 -0.753225 -0.621891 0.183872 0.283500 -0.939522 0.048430 0.914506 0.276424 0.523100 -0.285378 -0.621745 0.036415 0.004098 0.304691 0.299752 0.272345 -0.457641 -0.554778 -0.909303 0.188220 0.017194 -0.294428 0.483023 -0.469908 1.175650 -1.080932 -0.497310 -0.677840 -1.206376 -0.605512 0.160782 1.423740 -0.461434 0.600353 -0.783582 -0.393752 -0.350941 1.673409 0.252228 -0.047209 -0.344535 -0.869811 0.029026 0.369971 0.013909 -0.813482 -0.380727 0.655819 -0.242152 -0.187040 -0.493473 -0.616036 0.466305 -0.027572 -0.055104 -0.560412 -0.797031 0.235393 -0.075876 0.713282 0.648693 -0.259973
laegenhet -0.242390 0.372176 -0.223886 0.113569 0.236647 -0.179528 0.110782 -0.147928 0.343679 0.319525 0.222868 -0.168553 0.458101 0.111849 0.471042 -0.404903 0.099730 0.131369 0.331487 0.021860 -0.864882 -0.171819 0.377822 -0.086781 0.144985 -0.603643 0.633021 -0.296586 0.408196 0.046374 0.102236 -0.118497 -0.507044 -0.215210 -0.184093 -0.281797 0.203771 0.121367 -0.237985 -0.317288 -0.225563 0.097139 0.177959 0.599198 -0.044297 0.498442 -0.101639 -0.169127 0.150848 -0.259259 -0.108646 -0.283765 0.149863 -0.198535 0.209509 -0.003643 0.225570 -0.126125 0.282080 0.079974 -0.240724 0.024350 0.151591 -0.120618 0.383221 -0.083325 0.912888 0.033258 -0.348274 0.009706 -0.299560 -0.594627 -0.153448 0.445829 0.144980 -0.387015 -0.057387 -0.349643 -0.304053 -0.118519 0.320651 -0.119198 0.236828 0.335387 -0.229053 -0.508673 0.285182 -0.179596 0.467302 0.070145 -0.244990 0.472818 0.202012 -0.216033 0.007999 -0.372794 0.111275 -0.201642 -0.478634 0.132320
stora -0.866205 -0.399947 -0.136318 -0.659698 0.844915 0.526386 0.269997 -0.382233 0.574078 -0.368963 -0.219014 -0.631490 0.453379 -0.078283 0.532348 -0.301162 -0.153995 0.280359 -0.369682 -0.188125 -0.937080 -1.071287 0.263534 -0.455849 -0.354128 0.438331 -0.611895 0.394572 0.219563 -0.727344 0.519123 0.299795 -0.062696 0.637840 -0.367803 -0.356257 0.339008 0.028607 -0.162775 0.045646 0.286363 0.474252 0.828895 -0.420229 -0.205673 -0.625498 0.183060 0.439057 -0.025193 -0.002109 0.225190 0.787661 -0.256700 0.848491 0.178031 -0.298317 -0.217611 0.598947 -0.861652 -0.033146 -0.488631 -0.210534 -0.141232 0.237762 0.831265 -0.109354 0.678493 0.154412 -0.247155 -0.511982 0.296162 0.053488 -0.312683 0.523968 0.700504 -0.719137 -0.307606 0.097823 0.336253 0.797053 0.183237 0.212813 0.217656 -0.286469 0.591402 -0.466698 0.259957 0.321541 0.574854 -0.451337 -0.390827 0.353167 -0.307906 -0.267582 1.069403 -0.098424 0.075644 -0.669124 -0.084966 -0.296817
aeven 0.596452 -0.640025 -0.172914 -1.119347 0.209754 -0.297485 -0.420700 0.056029 -0.533879 -0.741078 0.150216 -0.198422 -0.650373 0.123006 -0.131566 -0.056811 0.058098 0.466777 -1.086521 0.146001 0.428962 -0.347643 -0.752798 -0.426149 -0.139524 1.059402 -1.341978 0.120503 -0.605141 -0.216217 0.010975 0.273500 0.364220 0.163689 0.005783 0.364985 -0.069886 -0.493097 0.647945 0.172089 0.669990 -0.351019 -0.018460 -0.789595 -0.241184 -1.028043 1.063740 0.206762 -0.028846 0.113514 -0.180438 0.997504 -0.720364 -0.025794 -0.539624 -0.200939 -1.154634 0.115840 -0.623129 -0.341279 -0.688323 0.092877 -0.915679 0.517276 -0.313735 0.872022 -0.674779 -0.383840 0.502409 -0.463349 0.463365 0.109711 0.107914 -0.942033 -0.509051 0.280136 -0.088675 0.669682 0.831037 0.083069 -0.144952 0.716720 -0.251907 -0.856099 0.952684 -0.084232 0.082190 0.740924 -0.249434 0.503297 0.192582 0.270757 -0.561188 0.398880 0.731430 0.111203 0.346191 -0.873872 -0.041851 -0.454786
bor 0.198984 0.306726 -0.061976 0.000508 -0.489180 0.429695 -0.514917 0.283625 -0.267981 -0.372799 0.035289 0.339857 -0.293625 0.293891 -0.322918 0.004518 -0.110473 0.213601 -0.478917 -0.108898 0.828860 0.195683 0.053264 -0.245416 0.859228 0.468117 -1.373223 0.098744 0.078001 0.476507 -0.152909 0.138662 -0.061307 0.131841 0.169418 -0.427680 0.564451 -0.073732 0.363791 -0.202346 -0.084559 -0.376496 -0.313740 0.241654 0.557889 -0.924948 -0.520932 -0.343195 -0.880931 -0.329644 -0.319557 0.288496 -0.085120 0.076231 -0.248606 -0.530100 -0.590788 -0.207606 -0.397497 -0.277118 -0.101616 0.229020 0.174632 -0.194401 -0.576848 0.197526 -0.008754 0.273008 -0.422689 -0.257255 -0.255672 0.282805 1.187518 0.319104 0.065611 0.257416 -0.199254 -0.243789 -0.505797 0.518432 0.328374 0.004135 -0.012425 -0.145816 0.294763 -0.133721 -0.051482 -0.061603 -0.583996 0.674962 0.150676 -0.617613 -0.084986 0.493070 -0.793919 -0.172216 -0.395263 0.390583 0.273674 -0.283793
stor 0.550464 0.406716 -0.569757 -0.250352 0.619447 -0.090357 -0.110088 0.468774 -0.076142 -0.123322 -0.250159 -0.227862 0.570830 0.397209 -0.160028 0.308641 0.127298 -0.219710 -0.206984 0.009562 -0.688730 -0.717531 0.368641 -0.168914 -0.243601 -0.252784 0.278387 0.367493 0.433912 -0.504301 -0.022275 0.122367 -0.174136 -0.167531 -0.075427 -0.638997 0.180432 0.039629 -0.029630 0.273029 0.001412 -0.107008 0.229020 0.600922 0.371471 -0.116521 -0.376692 0.013586 0.202699 -0.192905 0.377568 -0.173047 -0.076658 -0.343660 -0.107283 0.111766 0.554579 0.187323 -0.246403 -0.102626 -0.114507 -0.444669 -0.228600 0.497525 0.515710 -0.323662 1.061940 0.637763 0.167951 0.018722 0.861333 -0.446587 -0.539290 0.533697 0.700847 -0.408469 0.196683 -0.019277 0.154910 0.005585 0.290166 -0.783261 0.256663 -0.387188 -0.244654 -0.314355 -0.123689 -0.452640 0.837870 0.064878 0.083063 0.157059 -0.345849 -0.523874 0.231615 -0.075866 -0.454044 -0.702498 0.121913 -0.321425
genomgaaende -0.599147 0.252903 -0.879343 0.114772 0.601542 0.586391 0.333320 -0.305830 0.964525 0.473616 -0.046033 -0.554908 -0.006941 0.117635 0.545901 -0.210985 0.061266 0.200678 -0.632387 0.206113 -0.783497 -1.034386 0.548388 -1.042476 -0.070240 -0.022497 0.219344 0.909733 0.013928 -0.437254 0.300197 -0.535917 -0.214194 1.100455 -0.356777 -0.555071 1.108791 0.818126 -0.836559 0.707796 0.031145 -0.651891 1.216838 0.559611 -0.855171 1.039173 -0.996569 0.522913 -0.034403 -0.419281 -0.210581 0.358799 0.072801 0.182038 0.557557 0.529691 1.457811 0.526604 -0.180514 0.165101 -0.794982 -0.349324 -0.416283 -0.078865 0.616363 -0.243395 1.004346 0.377341 -0.148907 0.468846 -0.097229 -0.545484 -0.274223 1.232130 0.983111 -0.871801 -0.249420 -0.277611 -0.239849 0.107667 0.035243 -0.486622 0.163528 0.368334 -0.492437 -0.179732 0.397306 0.088223 0.377594 -0.600280 -0.043680 0.867986 0.181453 -0.406658 0.770100 -0.682597 -0.183215 0.276175 -0.391745 -0.357461
baade 0.148002 -0.150249 0.072825 -0.394473 -0.091047 0.476314 -0.354788 0.183320 -0.253573 -0.685787 0.055076 -0.323685 -0.522120 0.427499 -0.212063 0.031354 -0.320557 0.411347 -0.838032 0.108156 0.327616 -0.359146 -0.290091 -0.433468 0.125241 0.974286 -1.179326 0.250127 -0.228287 -0.056108 0.281858 -0.056703 0.299300 0.210905 0.111706 -0.340832 0.037185 -0.392190 0.252638 0.264574 0.446063 -0.146907 -0.043171 -0.477199 0.238512 -1.329391 0.584869 -0.316885 -0.338276 0.224017 -0.001863 0.476271 -0.437778 0.239478 -0.646315 -0.161850 -0.734490 0.132399 -0.536122 -0.170266 -0.786090 -0.040853 -0.395489 0.402126 0.026940 0.400555 -0.295886 -0.001499 0.026929 -0.335515 0.397608 0.371416 0.474665 0.036367 0.028890 0.207516 -0.238117 0.353754 0.391237 0.206952 0.190920 0.185989 -0.285636 -0.621865 0.798115 -0.171446 -0.111752 0.241114 -0.272657 0.174670 0.135096 -0.381200 -0.559033 0.252461 -0.021942 0.044318 -0.169301 -0.550530 0.287425 -0.417761
kvm 0.445989 0.335806 -0.572782 -0.187670 0.808780 -0.539066 0.486123 0.193409 -0.152833 0.047292 0.367205 -0.730737 0.462729 0.254240 0.224584 -0.240682 0.332225 -0.724279 0.407312 0.237736 -1.190034 -0.493497 0.426950 -1.173982 -0.447587 -0.813567 1.111953 -0.054617 -0.074307 -0.535069 -0.301239 -0.158662 -0.296149 -0.785988 0.183655 -0.099190 0.542353 0.343843 0.201831 -0.108177 -0.374216 0.031129 0.234143 0.820258 -0.708209 0.395064 -0.286851 0.122929 0.285197 0.316699 0.187893 -0.288564 -0.276528 -0.610644 0.337676 0.137293 0.988527 -0.390509 0.590567 0.013676 0.037650 -0.302924 -0.773027 0.089946 0.296170 0.195397 0.577366 0.022733 0.074238 -0.671265 0.004808 -0.681813 -0.481931 -0.260723 0.288629 -0.439823 0.136983 0.068401 -0.010411 -0.417781 -0.082301 -0.335492 0.179598 0.418573 -0.082224 -0.422316 0.344362 0.375708 -0.146858 0.122502 -0.667932 0.499146 0.130842 -0.145047 0.602270 -0.234808 0.420501 -0.478672 -0.538725 0.285498
plats 0.126189 -0.116694 -0.155710 -0.686733 0.321565 0.273187 -0.360323 0.375891 0.029785 -0.990090 -0.330932 -0.529478 -0.003880 0.549197 0.334180 0.079126 0.044935 0.947386 -0.838264 0.563011 -0.746761 -1.375476 -0.001067 -0.262883 -0.479133 1.446698 -0.355711 0.253441 -0.363380 -0.557676 0.651693 0.040666 0.137783 0.428391 -0.117609 -0.702240 -0.235561 -0.649201 -0.015929 0.170378 0.809644 -0.415809 1.005564 -0.457406 0.052418 -1.050188 0.744321 -0.118884 0.483062 -0.319017 0.303438 0.385471 -0.411155 -0.052093 -0.722793 0.382861 -0.274845 0.979380 -0.865084 -0.208465 -0.791077 -0.403493 -0.552819 1.117013 0.748674 0.213982 0.104887 -0.149140 0.287483 -0.225997 1.597341 -0.113368 -0.600614 0.494523 0.192287 -0.194834 0.412920 0.498879 0.814109 0.168958 0.146980 -0.250293 0.242149 -0.486668 0.167796 -0.576278 0.066322 -0.492420 0.853590 -0.243930 0.273383 0.348410 -1.656902 -0.641563 1.075792 -0.141221 -0.080587 -1.079315 0.419574 -1.165787
in -0.151681 -0.500360 0.380635 -0.344114 0.269004 0.048181 -0.640680 -0.472137 0.427187 -0.134540 0.729363 -0.947162 0.034549 0.199281 -0.263276 -0.095999 0.020359 0.167252 -0.106054 0.396131 0.111021 -0.205502 -0.333961 -0.208478 0.082273 0.242114 -0.180968 -0.155110 -0.611027 -0.131405 0.075235 0.081801 0.335383 0.160813 0.246012 0.102260 -0.124004 -0.043117 -0.193886 -0.042278 0.249516 0.122326 0.184758 -0.146633 -0.490748 -0.464503 0.078811 -0.402399 -0.204335 0.635066 0.279873 0.372297 -0.458811 -0.045716 -0.262153 -0.303624 -0.171708 -0.106848 -0.047154 0.096866 -0.503386 -0.405759 -0.180533 0.178612 0.106649 -0.142206 -0.451560 -0.356380 0.400502 0.054705 0.007525 0.254507 -0.557615 0.030398 0.135962 -0.053493 0.015897 0.831679 0.293434 0.366837 -0.219628 0.377453 -0.269554 0.323757 0.480322 0.310796 0.294153 0.556026 -0.425118 -0.394809 -0.351148 -0.220695 0.027199 0.043219 0.462514 -0.117163 0.243614 -0.208648 0.300009 -0.336489
bostaden -0.617099 -0.237457 0.071274 -0.457019 0.238544 0.088685 -0.174959 -0.340902 0.653475 0.051054 0.442812 -0.336609 0.117942 -0.083890 0.310190 -0.208674 -0.025556 0.250926 -0.245643 -0.247269 -0.589174 -0.391622 0.058902 -0.181187 -0.075549 0.186679 -0.289443 0.192451 -0.179786 -0.021704 0.187931 -0.071701 -0.159849 0.375941 -0.392150 -0.160448 0.191413 0.279669 -0.352362 0.038594 0.360016 -0.014567 0.502828 -0.016809 -0.433052 0.044258 -0.018145 -0.026821 0.007327 -0.017598 -0.030338 0.272013 -0.113791 0.123771 0.070051 -0.216453 0.249938 0.316263 -0.341746 0.156392 -0.471393 -0.168364 -0.279229 -0.029370 0.389402 0.168913 0.375882 -0.100201 -0.215084 -0.098253 -0.067961 -0.134797 -0.081959 0.369005 0.443461 -0.315891 -0.254954 0.140413 0.033995 0.226813 0.057007 0.268117 0.138167 0.286491 0.315642 -0.322285 0.354751 0.082442 0.259387 -0.303134 -0.568315 0.228912 -0.141707 -0.222228 0.671716 -0.158101 0.121205 -0.332128 -0.237949 -0.384237
centrum 1.174333 -0.208084 -0.016074 -0.291443 -0.821183 -0.377258 -0.471857 0.606788 -0.872652 -0.708158 0.552917 0.054186 -1.197669 0.089187 -1.286640 0.077064 -0.222293 -0.013174 -0.368273 0.098615 1.208937 0.773032 -0.305798 -0.175184 0.834340 0.778472 -1.149524 0.146763 -0.331058 0.635614 -0.673749 0.113565 0.383606 0.402219 0.400799 0.197317 0.198477 -0.200518 0.616100 0.392680 0.150106 -0.429118 -0.448309 0.115415 0.244752 -1.051608 0.201720 -0.129696 -0.637932 0.199357 -0.479299 0.484813 -0.823351 -0.223763 -0.653513 -0.397853 -0.724996 -0.239460 -0.335114 -0.075943 -0.244851 -0.097894 -0.296484 -0.508238 -0.893156 0.439569 -0.702156 -0.301485 0.543775 -0.274996 -0.163897 0.632964 1.031441 -0.805053 -0.197191 1.121544 0.013753 0.391497 0.417025 0.289336 -0.162377 -0.005074 -0.232001 -0.767572 0.500213 0.424238 -0.040937 0.421857 -0.638138 0.688112 0.824044 -0.288359 -0.234590 0.718112 -0.624137 0.208884 -0.081032 0.243026 0.267668 -0.285430
boende -0.066534 0.588507 0.105489 0.269925 0.104928 0.714706 -0.020587 -0.007898 -0.002048 0.213983 -0.129465 -0.205697 0.424467 0.865432 0.437321 -0.405613 -0.127470 0.679058 -0.520078 0.687139 0.095088 -0.053612 0.053905 -0.595321 0.484242 0.239497 -0.343873 -0.665264 -0.228396 -0.000720 0.453264 -0.191439 -0.385531 -0.544799 -0.011266 -0.365856 -0.032734 -0.471704 0.109597 -0.677389 -0.424312 0.010932 -0.311912 -0.018145 0.086746 -0.590593 0.409679 -0.626282 -0.749722 -0.218564 -0.220476 0.105429 0.255821 0.080640 -0.262248 -0.519447 -0.663984 -0.278573 0.203368 -0.303368 -0.657039 0.328005 -0.257580 0.436413 -0.336003 0.228168 -0.211003 -0.183694 -0.333238 -0.018508 -0.028906 -0.081258 0.533208 0.200033 -0.449474 0.020918 -0.281378 -0.379352 -0.493602 -0.460056 0.076412 0.399845 -0.206747 0.391629 0.478960 -0.469017 -0.096096 -0.075340 -0.686065 0.632451 -0.504545 -0.262591 0.025152 0.117253 -0.368142 -0.220866 0.080628 -0.138004 0.091647 0.040304
foerening -0.209920 1.055027 0.283486 0.612991 -0.393966 0.726290 -2.217716 0.501645 -0.787995 -0.860373 -0.523845 1.364021 -0.984578 -0.883158 0.544001 -0.539236 0.165588 0.374920 0.581455 -1.364129 0.897323 0.473948 -0.405924 0.802831 0.523920 1.094272 -0.934621 1.336044 0.253692 0.898238 -0.401769 -0.891297 -1.421511 -0.476679 -0.257878 -0.368523 0.404045 -0.848811 -0.376761 -0.199943 0.097978 -1.217240 -0.433838 -0.411441 0.873800 -0.107687 -0.995645 -0.639780 1.028451 -0.519805 -1.781444 -0.508743 -0.041013 -0.536394 -0.377631 -0.852071 -0.486478 -0.241361 0.436953 -0.329436 0.648927 0.588059 1.140938 0.820441 -0.938085 0.690416 -0.264121 0.353615 0.064051 -0.486336 -0.763829 -0.352277 -0.233696 0.133662 0.871802 -0.769514 -0.034803 -0.674611 -0.737216 -0.821404 1.927479 -0.589565 1.131654 -1.195408 -0.392609 0.547407 0.058383 0.333136 -0.482063 0.721948 1.313229 -0.235602 -1.067312 -0.083473 0.366444 -1.659964 -1.357282 -0.318001 0.113257 -1.377657
utsikt -0.475424 0.389057 -0.297212 -0.502927 0.433196 -0.007797 -0.299221 0.084688 0.173481 -0.247100 0.031833 -0.375750 0.408222 -0.048972 -0.235044 0.296230 -0.025366 -0.098773 0.208948 -0.271403 -0.585815 -0.267062 -0.037891 0.277809 0.150853 -0.155860 -0.503991 0.236090 0.836210 -0.676790 0.249242 0.193603 -0.071333 0.316294 -0.027978 -0.533903 0.375376 -0.311567 0.426696 -0.334706 0.296706 -0.168588 0.308783 0.167358 -0.191529 -0.283872 -0.457299 -0.125971 0.302136 0.342752 0.447195 -0.233677 -0.347380 0.232787 0.305269 -0.326980 -0.214183 0.035966 -0.187280 -0.084052 -0.126279 0.095659 0.185660 0.072349 0.323546 0.075745 1.107373 0.243005 -0.257344 -0.294158 0.099626 -0.493390 -0.454918 0.613545 0.664255 -0.887515 0.230497 0.126427 -0.393137 0.838489 0.522279 -0.419855 0.199243 -0.032435 0.072017 -0.439508 0.215920 -0.358343 0.680961 -0.030111 -0.071743 -0.021829 0.259190 -0.085380 0.337275 0.084910 -0.045654 -0.672430 -0.039947 0.366774
vaelkomna -0.282272 -0.122755 1.072279 0.857572 0.153864 -0.459649 0.504442 -1.271326 -0.009883 -0.067871 0.647765 1.013294 -0.651969 0.025241 -0.389532 -0.223257 -0.700100 -0.491213 -0.023624 -0.762070 1.448384 0.173412 0.204916 -0.051501 0.223106 0.018996 0.414527 -0.256486 -1.682740 0.380440 -0.381518 -0.640315 0.687652 -0.212194 0.101372 0.447001 -0.500992 -0.356512 0.682912 0.800731 -0.107326 0.934942 -0.588444 0.297474 0.126560 -0.529371 -0.794209 -0.484646 0.172664 -0.669461 -0.017079 0.143896 1.754379 0.547625 -0.173515 0.590022 0.328231 -0.114907 0.270275 0.110188 0.567831 0.149227 0.703677 -0.355180 -0.816424 -0.561600 0.227304 0.880524 -0.156586 0.855177 -0.239409 0.707217 -0.121990 -0.092528 -0.068535 -0.306227 0.324563 0.646776 -0.494337 0.051924 -0.037942 -0.688779 0.425595 -0.090556 0.386665 0.598637 -0.142049 0.301549 -0.498389 0.247016 -0.343444 -0.258532 0.409301 -0.288448 -0.886833 0.378757 0.027171 -0.059097 0.341941 0.455915
naera 0.157536 -0.078092 0.196841 -0.076102 -0.705183 -0.360936 -0.630225 0.202050 -1.055298 -0.560151 0.238943 0.062659 -0.733314 0.408063 -1.391110 0.248454 -0.797863 0.245751 -0.052063 -0.339572 0.899441 1.009959 0.158724 0.397109 0.584295 0.404649 -0.791352 0.057845 0.181492 0.254671 -0.292653 -0.080270 0.465597 0.180261 0.141243 -0.324159 0.316935 -0.094682 0.323074 0.168100 -0.384831 -0.043657 -0.569975 0.074135 0.796354 -1.515768 0.105602 -0.594958 -0.480500 0.568962 -0.357988 0.054752 -0.690024 -0.299356 -0.404836 -0.162260 -0.443413 -0.418653 -0.165796 0.497991 -0.091605 0.326980 0.127039 -0.106118 -0.895518 0.155180 -0.694981 -0.358982 0.156892 -0.215504 0.146690 0.539110 1.048188 -0.171009 -0.236321 0.394361 -0.388931 0.316975 0.155746 -0.051453 -0.092092 0.175279 -0.255252 -0.445964 0.762110 0.306814 -0.347579 -0.150402 -0.629101 0.300199 0.250539 -0.668247 -0.111279 0.219035 -0.585914 -0.007589 -0.083221 -0.143519 0.622794 0.275461
kommunikationer 0.620617 0.258516 0.468644 0.276597 -1.336281 -0.237335 -0.929487 0.686996 -0.266586 -1.293901 0.524513 0.414918 -0.975059 -0.185904 -1.188575 -0.163021 -0.231821 -0.203609 -0.139053 0.390489 1.676821 0.822490 -0.285152 0.396211 1.186828 1.107039 -1.775121 0.433985 -0.423865 1.346703 -0.687574 -0.210037 0.757563 0.509931 0.386458 0.126047 0.402134 -0.244536 0.169217 -0.219230 0.049010 -0.716583 -0.777519 0.100932 0.837077 -1.272094 0.074731 -0.080524 -1.239943 0.260135 -0.315350 0.182750 -0.794925 0.196575 -0.538532 -0.819183 -0.964615 0.240609 -0.480395 -0.100711 -0.812990 -0.023023 0.085152 -0.384936 -0.592587 0.643871 -0.671767 -0.167417 0.121619 -0.211421 -0.558270 0.784032 1.135713 -0.503673 -0.173965 0.397710 0.075241 0.467966 0.346359 0.375397 -0.520687 0.245535 -0.524307 -0.681815 0.041399 0.340843 -0.281730 0.012908 -1.356318 0.659203 0.569530 -0.591953 0.022325 0.849891 -0.824058 0.437233 -0.492020 0.490045 0.525519 -0.518247
fina -0.287190 0.213050 -0.294578 -0.189640 -0.016445 0.425246 0.235734 -0.134760 0.118199 0.183007 0.191017 -0.036374 -0.392145 0.311537 -0.181460 -0.204281 -0.494849 0.187942 -0.366260 -0.077748 0.151364 -0.010714 0.121948 -0.501108 0.215894 0.368028 -0.506996 0.301714 -0.060980 -0.051577 0.143420 -0.272083 0.053498 0.570429 0.032368 -0.159072 0.456389 0.247815 -0.093392 0.411814 0.312435 -0.346120 0.117048 0.221225 -0.410659 -0.103024 -0.215965 -0.158528 -0.333458 0.035896 -0.219391 0.179526 -0.120368 0.249267 -0.046409 -0.102207 0.097154 0.045938 -0.246984 -0.018931 -0.463657 -0.071142 -0.234029 -0.354898 -0.157299 0.171025 0.117425 0.102732 -0.188461 -0.009344 -0.283448 0.095152 0.649615 0.336840 0.313341 0.088024 -0.291917 -0.152940 -0.242807 0.094689 0.087947 -0.100072 -0.002291 0.036893 0.254493 -0.131047 0.160178 0.137578 -0.058930 0.160985 -0.089637 -0.009938 0.050871 0.287091 0.040202 -0.148644 -0.092394 0.272108 -0.006609 -0.067306
stort 0.692051 -0.020830 -0.557161 -0.253419 0.497942 0.104233 0.107294 0.596713 -0.409349 -0.684456 -0.790083 -0.397139 0.123432 0.210612 -0.197374 0.001878 0.291955 0.450134 -0.612900 0.490918 -0.975219 -0.694526 0.412891 -0.472724 -0.233916 0.655122 -0.465000 0.449565 -0.394816 -0.226357 -0.206532 0.221560 0.377726 0.869897 -0.309084 -0.598045 0.243956 -0.337741 0.247290 0.420054 0.282887 -0.186817 1.037612 0.483895 0.244244 -1.217306 -0.093001 0.276391 -0.109665 -0.651785 0.403725 0.745849 -0.746175 -0.089952 0.088951 0.034845 0.042004 1.118652 -1.140302 -0.093703 -0.719830 -0.568854 -0.656106 0.310544 0.633344 -0.303059 0.333829 0.087178 -0.118600 -0.403747 1.356595 -0.000437 -0.480500 0.697345 0.366709 -0.872324 0.657047 0.451002 1.084264 0.959955 -0.473632 -0.652111 0.146329 -0.313995 -0.077231 -0.751431 -0.100728 -0.627142 0.558802 -0.353075 0.408889 0.513584 -1.861796 -0.370751 0.796252 -0.091137 -0.035959 -0.505316 0.433478 -0.797017
varmt -0.199479 0.657828 0.767259 0.232089 -0.094607 0.173584 0.100958 0.116513 -0.113801 0.343251 0.309891 0.488518 0.091336 -0.063264 -0.368951 0.063556 0.053109 -0.398842 0.545208 0.283415 0.510255 0.506940 -1.089754 1.186895 0.343604 0.030720 0.105452 0.124925 -0.309583 0.713319 0.043062 -0.457300 0.304713 0.177239 0.661510 0.607131 -0.489983 0.356796 -0.539913 -0.155302 0.624623 -0.415957 -0.163633 -0.108312 -0.384166 0.277311 0.758905 0.113632 -0.078144 0.539533 -0.125386 0.491447 0.021663 -0.051637 -0.388367 -0.383659 -0.677348 0.038458 0.015818 -0.223979 0.613933 0.523250 0.876970 -0.484615 -0.377785 -0.474040 -1.248555 -0.548241 0.490162 1.122784 -0.345137 0.607364 -0.608211 -0.613282 -0.954607 1.244107 0.044320 -0.370043 0.158310 -0.554147 -0.521781 0.073094 0.549428 -0.709942 -0.413998 0.511548 -0.182264 -0.432424 -0.673255 -0.174014 0.639686 -0.600373 0.177716 0.185689 -0.375194 0.010247 -0.065739 1.187269 0.481205 -0.141141
huset -0.749750 0.015724 0.203114 -0.928083 0.268930 -0.772811 -0.860158 0.234888 0.067746 0.414222 0.735637 0.247386 0.662759 -0.023145 0.019883 0.267792 0.307171 0.179505 -0.378814 -1.023567 -0.398933 0.433290 -0.034220 0.162251 0.439775 -0.582570 -0.592550 -0.241932 0.290838 -0.418259 -0.427568 0.241179 -0.600332 -0.472237 -0.355229 0.286442 -0.223584 -0.188790 1.091459 -0.703970 0.611844 0.026391 -0.199610 -0.074460 -0.444638 0.457605 -0.588405 -0.531474 -0.326615 0.091256 0.180969 -0.090705 0.156907 -0.291193 0.002540 -0.747749 -0.407011 -0.684435 -0.391478 0.530921 0.110770 0.606912 -0.646933 -0.500853 0.021422 -0.154709 0.342364 0.026718 0.599840 0.002919 0.195474 -0.554675 0.075591 0.237360 0.682880 -0.362088 -0.197474 -0.333589 -1.101483 0.452954 0.262149 0.293391 0.362366 0.690732 0.359648 -0.180257 0.644796 0.082948 0.438097 0.489485 -0.686354 0.132612 0.245521 -0.255474 0.334376 0.016600 0.491519 -0.707949 -0.765209 0.611042
oeppen 0.007478 0.342513 -0.842535 0.817345 1.007001 -0.425334 0.862592 0.490335 -0.192594 -0.268229 -0.641227 -1.560251 0.573400 0.126087 0.501845 -0.129036 0.148880 0.587747 0.416325 0.238944 -1.395160 -0.834418 0.484316 0.274505 -0.304964 0.151297 0.831520 0.433122 -0.271224 -0.449752 0.243742 -0.700782 -0.034501 1.106095 0.154370 0.155992 0.387471 -0.242541 0.082315 0.362433 0.047853 0.245603 1.826833 0.800964 -0.754544 -0.439431 -0.137847 0.394068 0.513800 0.083744 0.403879 -0.381818 -0.662835 0.572375 0.562694 0.250288 0.935594 0.837842 -0.311563 0.770464 -1.683877 -0.648233 -0.844908 0.485315 1.278643 -0.417969 1.421034 0.369727 -0.112135 0.391527 0.534567 -1.075933 -1.058982 0.833534 0.717891 -1.987705 0.246442 0.199143 1.052790 0.369129 -0.801372 -1.121156 0.121217 -0.263711 -0.396305 -1.109725 -0.174339 -0.063028 0.574246 -0.172965 0.194219 1.500542 -0.607210 0.276385 0.800740 -0.648328 -0.356801 -0.532749 -0.148746 0.069111
ljus -0.643834 0.177322 -0.210558 -0.022919 0.717332 0.277597 -0.180367 -0.344746 0.956706 0.096821 -0.160520 -0.137640 0.743054 -0.194757 0.236087 -0.081636 0.048245 -0.153187 0.240816 -0.187581 -0.852996 -0.707947 0.493416 -0.110467 -0.001596 -0.258623 -0.054059 0.329295 0.299446 -0.461471 0.218627 -0.070211 -0.085097 0.437045 -0.327284 -0.488913 0.419736 0.264434 -0.366178 0.002336 -0.136051 -0.040851 0.714675 0.873117 -0.209265 0.259254 -0.657773 0.310469 0.096835 -0.168926 0.039404 -0.130642 -0.185011 0.102587 0.577984 -0.312759 0.362037 0.746273 -0.129004 0.407355 -0.596234 -0.198260 0.076447 0.245207 0.575723 -0.039678 0.911959 0.438840 -0.467400 -0.007140 -0.376321 -0.478325 -0.596639 1.157592 0.697614 -1.263294 0.174142 0.047885 -0.325005 0.527924 0.165665 -0.234429 0.520405 0.406771 -0.510863 -0.424404 0.259850 -0.394968 0.845198 -0.212170 -0.432593 0.468951 0.061693 -0.230813 0.877258 -0.330148 -0.189091 -0.321803 0.426859 0.052968
erbjuder -0.117855 -0.056404 -0.536732 -0.514785 0.441170 -0.046194 0.314487 -0.048836 -0.375585 -0.487550 -0.225668 -0.278015 -0.204495 0.127001 0.157633 0.039964 -0.338918 0.313448 -0.607390 0.002385 -0.368453 -0.452898 0.105421 -0.511616 -0.328045 0.298462 -0.586970 0.204985 -0.099432 -0.437151 0.159799 -0.094758 0.119116 0.552282 -0.262063 -0.198078 0.436380 -0.040761 0.280799 0.114209 0.289918 -0.022537 0.266620 -0.049063 0.006933 -0.438793 0.023000 0.344460 0.082158 0.246062 -0.236576 0.456848 -0.228296 0.403299 0.226951 0.139481 -0.135700 0.284561 -0.387285 0.118974 -0.546304 -0.113080 -0.833013 0.099449 0.097715 0.287431 0.204841 -0.021775 -0.088297 -0.197398 0.436589 0.081799 0.171987 0.103165 -0.130568 -0.360903 -0.212260 0.202246 0.337671 0.095505 -0.115071 0.157001 -0.205851 -0.253048 0.529297 -0.406834 -0.034077 0.361038 0.157783 0.203881 -0.155788 0.338874 -0.443750 0.090827 0.547003 -0.158761 0.040125 -0.299027 0.064364 -0.155868
ca 1.014235 -0.406183 -0.689680 -0.602489 0.643366 -1.023383 -0.053881 0.239532 -0.900484 0.005211 1.018252 -0.929597 -0.545534 0.233579 -1.014103 -0.142626 -0.286238 -0.621257 -0.098511 0.074945 0.070285 0.462459 -0.219844 -1.043749 -0.038668 -0.573141 0.170770 -0.152695 -0.477386 -0.283633 -1.024713 -0.101662 0.637767 -0.088152 -0.072462 0.662184 0.570809 -0.095465 0.607062 0.660654 -0.327828 0.007066 -0.624461 0.601132 -0.515424 -0.277251 -0.045586 0.205732 -0.056886 1.179301 -0.363464 0.543069 -0.900493 -0.768694 -0.098375 -0.306986 -0.257289 -0.998358 0.283770 0.255622 -0.274347 -0.699619 -1.049701 -0.204235 -0.618807 0.502736 -0.670834 -0.257370 0.669930 -0.848462 -0.192935 0.101471 -0.054228 -1.147721 -0.210797 -0.077510 0.243363 1.002999 0.831293 0.035249 -0.228026 0.247023 -0.119798 -0.306145 0.821508 0.429487 0.058214 1.509737 -0.517490 0.219117 -0.442288 0.114944 0.420663 0.362396 0.315561 0.164524 0.272153 -0.683889 0.180699 0.616270
foenster -1.379956 -0.029346 0.280433 -0.583452 0.794650 0.277340 -0.294188 -0.321660 0.785518 -0.191842 -0.124039 -0.226046 0.956181 -0.711697 0.217510 -0.023763 0.162435 0.053365 -0.357856 -0.625323 -1.318694 -1.349688 0.410268 0.007842 -0.373910 0.275280 -0.883297 1.124742 0.177242 -0.698671 0.236465 0.127685 -0.013453 1.520406 -0.853047 -0.557083 0.203726 0.139547 -0.053056 0.541071 0.201064 -0.251681 0.887572 0.867911 -0.273212 -0.462280 -0.578122 0.837388 0.159075 -0.303759 0.380962 0.502047 -0.424845 0.480629 0.584386 -0.279992 0.068158 1.443947 -0.953649 0.063044 -0.939916 0.075626 -0.032192 0.779746 0.659072 0.081908 0.654281 0.255085 -0.685416 -0.092044 0.172754 -0.483366 -0.460832 0.567900 0.920433 -1.965078 0.263386 0.340390 0.221951 1.102791 0.033516 0.175933 1.204300 0.437333 -0.250578 -0.553129 0.259612 -0.061657 1.078640 -0.694149 -1.082189 0.608153 -0.054878 -0.309550 1.739043 -0.400430 -0.193120 -1.086774 0.505677 -0.380695
brf -0.351779 0.661330 0.068817 0.067356 0.044703 -0.051607 -0.440843 -0.235960 -0.423006 -0.120668 0.129178 0.634024 -0.018920 0.403351 0.566139 -0.467362 0.029164 0.353368 0.123410 0.061988 0.182097 -0.181806 0.164470 -0.153076 -0.160330 -0.580015 0.263519 -0.044654 0.510750 0.324985 0.265657 -0.090787 -0.816571 -0.723527 -0.178587 -0.126909 0.332832 0.171459 -0.294402 -0.740957 -0.464059 0.172415 -0.889363 -0.315339 0.308336 0.395153 0.274859 0.041105 0.023451 0.147411 -0.517070 -0.412090 0.223776 -0.150412 0.156256 -0.135625 0.116196 -0.695891 0.370292 -0.509388 0.308785 0.603233 0.010272 0.226658 -0.472702 0.255054 0.448083 0.072119 -0.074443 -0.107975 -0.012721 -0.179603 0.318360 -0.160646 -0.356882 -0.043136 -0.733219 -0.434570 -0.214755 -1.348945 0.668800 0.556085 -0.003089 -0.064003 0.489868 0.165843 -0.166834 0.227756 -0.496170 0.626335 0.159821 -0.141557 0.577422 -0.036999 -0.220201 -0.632867 -0.266575 -0.248082 -0.477633 -0.350412
restauranger 0.569047 -0.179497 0.189134 -0.243898 -0.802408 -0.403478 -0.164404 0.147687 -1.092448 -0.919571 0.517744 0.541978 -1.563425 -0.323390 -1.188299 0.172831 -0.225392 0.037958 -0.740065 0.267127 1.929357 1.309695 -0.375523 -0.184751 0.648584 0.924662 -2.238182 -0.337365 -0.501716 1.313406 -0.481077 -0.433095 0.665294 0.702659 -0.115774 0.164636 0.276763 -0.399450 0.804149 0.174498 0.421437 0.373293 -0.733535 -0.621688 0.491103 -1.553901 1.033520 0.173377 -0.850055 0.125084 -0.526847 0.860029 -0.974347 0.619255 -0.135167 -1.187164 -1.290257 0.243875 -0.330324 0.030645 -0.740032 0.199031 -0.591593 -1.025080 -1.461407 0.683248 -1.064613 -0.694454 0.080766 -0.457084 -0.353673 1.039717 0.881393 -1.122702 -0.962095 0.427810 -0.256741 0.881871 0.626374 0.251938 -0.040593 0.456218 -0.909873 -1.226885 1.413759 0.831272 -0.362403 0.422869 -1.448723 0.428294 0.788286 -0.031370 -0.512228 1.092112 -0.492649 0.563600 0.231116 0.137615 0.056972 -0.192147
rum -0.244095 0.396858 -0.035044 0.109239 0.616475 -0.016877 0.003958 -0.222673 -0.110301 -0.113809 -0.329943 -0.531121 0.502198 0.418489 1.045429 -0.537318 -0.077839 0.598068 -0.179065 0.387782 -0.949747 -0.968353 0.601419 -0.512691 -0.328614 -0.161586 0.593904 0.228356 -0.077278 -0.346360 0.409705 -0.210513 -0.623431 0.359957 -0.294540 -0.397485 0.247724 0.173454 -0.052323 -0.160664 -0.208716 -0.038809 0.503438 0.822254 -0.409859 0.013574 -0.128046 0.305287 0.363437 -0.161224 0.282354 0.396313 0.217978 0.187461 0.779238 0.042176 0.492687 0.322370 0.032526 -0.074683 -0.325964 -0.256182 -0.848115 0.279343 0.317831 -0.038130 0.389649 0.245840 0.120707 -0.217334 0.566183 -0.187145 -0.017132 -0.038402 0.145038 -0.548533 -0.290011 -0.228911 0.257825 -0.185434 -0.405157 -0.139676 0.045740 0.603264 0.118934 -0.707647 0.491333 0.285858 0.548494 0.207891 -0.472601 0.333690 -0.583121 -0.317652 0.750919 -0.379787 0.150710 -0.493171 -0.504655 -0.235763
belaegen -0.010338 0.394478 -0.135188 0.001022 0.228691 -0.046388 -0.047911 -0.236236 0.040705 0.253780 0.026152 0.164040 0.106268 -0.305193 0.000709 0.144894 0.156614 -0.202123 0.134540 -0.376989 0.384962 0.094190 0.259663 -0.150207 0.729187 -0.057975 -0.523010 -0.185815 0.414137 -0.214310 -0.283727 0.270255 -0.653067 0.068995 0.096126 -0.293973 0.821566 0.091533 0.432449 -0.295866 0.054849 -0.153763 0.381499 0.780965 0.274778 0.445744 -1.275334 -0.256372 -0.295752 -0.630138 -0.281445 0.044226 -0.030998 0.217704 0.342536 -0.580617 -0.081840 -0.075871 0.030363 0.000079 0.409970 0.230372 0.340719 -0.378975 -0.322551 -0.284409 0.723663 0.380830 -0.264730 0.069726 -0.527374 -0.225387 0.299450 0.373653 0.495496 -0.014658 0.032042 -0.523101 -0.924227 0.787503 0.383220 -0.386148 0.133804 0.124772 -0.413981 -0.155049 0.435024 -0.246742 0.221269 0.454228 0.084880 0.088318 0.257772 0.243911 -0.351176 -0.075191 -0.176361 0.418380 0.253748 0.608660
gott -0.033003 -0.231479 -0.540764 -0.567661 0.387260 0.533411 -0.474805 0.093353 0.082382 -0.772165 -0.304650 -0.674846 0.153788 -0.034024 0.599085 -0.160705 -0.103939 0.773146 -0.784825 -0.018630 -0.772654 -1.172800 0.218894 -0.044825 -0.564751 1.102076 -0.093517 0.171473 -0.380419 -0.258887 0.515015 -0.121785 -0.223423 0.960245 -0.242976 -0.853828 0.096416 -0.300461 -0.371778 0.771590 0.935283 -0.294829 1.135212 -0.602795 0.253590 -0.586908 0.051489 -0.065653 0.817643 -0.325639 0.006537 0.982598 -0.336435 0.015505 -0.337811 0.533072 -0.247191 0.840676 -1.167812 -0.064937 -0.555285 -0.668787 -0.385832 0.456452 0.772742 -0.276184 0.253754 0.248894 0.228471 -0.006626 0.957830 0.063412 -0.573045 0.854427 0.752856 0.117679 0.126497 0.226674 0.608158 0.903283 0.770492 -0.172013 -0.072909 -0.697460 0.232698 -0.435033 0.044224 -0.016220 1.147877 -0.433745 0.556313 0.487719 -1.633609 -0.309349 0.929498 -0.429683 -0.348846 -0.624952 0.318467 -1.340126
goda -0.141538 -0.549800 0.088820 -0.146439 -0.150015 0.257409 -0.433142 -0.141770 -0.480874 -0.424045 -0.041981 -0.560665 -0.346545 0.109076 -0.420603 -0.059766 -0.645885 0.441038 -0.696705 -0.154210 0.194947 -0.082832 0.054202 0.222195 0.275918 0.754459 -0.941760 0.526756 -0.339409 0.345973 0.271870 -0.115240 0.345933 1.006129 0.175717 -0.420832 -0.151488 0.195244 -0.329591 0.842945 0.341061 0.059445 0.088782 0.307687 0.619592 -1.600422 0.390375 -0.262778 -0.093167 0.212223 -0.103633 1.062991 -0.408708 0.092206 -0.448196 0.142274 -0.607739 0.261324 -0.648070 0.382351 -0.600103 -0.451129 -0.130760 0.217376 -0.052367 0.019430 -0.750491 0.077147 0.059873 0.208007 0.357911 0.624191 0.687570 0.111508 -0.146056 0.383064 -0.384577 0.402910 0.749965 0.424095 -0.373603 0.085982 -0.106324 -0.618185 0.676159 0.099155 -0.155481 0.386241 -0.031746 -0.124763 0.233497 -0.478903 -1.024099 0.175914 -0.041454 -0.330918 -0.385003 -0.271017 0.560870 -0.535776
helkaklat 0.794051 0.471172 -0.444104 0.147436 0.005888 0.567367 -0.637905 0.645290 -0.624033 -0.296002 -0.736125 -0.296869 0.248913 0.603951 -0.209664 -0.317437 0.162237 0.558733 -0.717676 0.271359 -0.609705 -0.766662 0.770024 -0.556668 -0.114345 1.057008 0.178568 0.717092 -0.592382 -0.205681 -0.301266 -0.240284 -0.052951 0.813932 -0.302760 -1.312290 0.322271 -0.079327 -0.485501 1.040851 0.277417 -0.973100 1.193544 0.529242 0.200810 -1.033329 -0.723012 -0.715273 0.107152 -1.199237 0.794108 0.644432 -0.432752 -0.982022 -0.011157 0.384640 1.130243 1.001576 -1.216625 -0.194250 -0.871271 -0.663698 -0.544907 0.401076 0.307122 -0.530977 0.201720 0.193654 -0.090557 -0.071352 1.659993 -0.098247 -0.189304 1.267951 1.264522 -0.683210 0.528706 -0.014103 0.654999 0.369669 -0.248004 -0.911441 0.167554 0.199976 -0.346589 -0.388063 -0.094571 -1.176735 0.407047 -0.645832 0.206126 0.210714 -1.899744 -0.374282 0.508610 -0.646532 -0.409359 -0.045662 0.045399 -1.712641
ljusa -1.035300 0.453370 -0.623536 -0.239708 0.491683 0.648318 0.576498 -0.397668 0.975734 0.623730 0.213559 -0.118499 -0.037256 0.226020 0.566933 -0.329166 -0.205652 0.105411 -0.477168 0.246339 -0.991536 -0.693319 0.234060 -0.939047 -0.382318 0.006775 0.337975 0.533711 -0.325532 -0.302777 0.414222 -0.550909 -0.106836 0.943724 -0.390515 -0.419705 0.665955 0.680024 -0.635731 0.557636 0.549091 -0.587694 0.788079 0.401403 -1.242744 1.158519 -0.554845 0.195979 -0.044919 -0.162009 -0.070522 0.080759 0.262388 0.363638 0.358782 0.471328 1.092498 0.491286 -0.277930 -0.108824 -0.504158 -0.085714 -0.518250 -0.182959 0.580315 -0.184558 0.553767 -0.016628 -0.460293 0.357495 0.001828 -0.364617 -0.223331 1.205294 0.536163 -0.471187 -0.165366 -0.319038 -0.445529 -0.231146 0.057939 -0.175749 0.210587 0.653145 -0.249042 -0.246164 0.409513 -0.057147 0.447018 -0.572034 -0.359477 0.583832 -0.039735 -0.398639 0.817490 -0.376439 0.144298 0.456095 -0.171725 -0.470054
perfekt -0.225288 0.375871 0.579880 0.540321 -0.249846 0.537519 -0.394899 -0.327955 0.202199 -0.675879 -0.016836 -0.364371 0.004290 0.341013 -0.282576 -0.267856 -0.538383 0.116072 0.208236 0.420641 0.411189 -0.076120 0.441509 -0.083082 0.198003 0.207748 0.089475 -0.281628 -0.226444 -0.026919 0.528193 -0.047334 -0.134403 0.036999 0.265432 -0.550843 -0.014220 -0.379616 -0.105031 -0.348803 -0.556336 0.398359 -0.061452 -0.375886 0.118497 -0.610685 -0.054022 -0.555974 -0.256200 0.422222 0.085629 -0.201134 -0.013292 0.488735 0.142655 -0.065394 0.099749 0.003764 0.140104 -0.133419 -0.321214 0.358289 0.162931 0.390533 -0.274114 -0.262334 0.203912 -0.102951 -0.162809 -0.064686 -0.161007 0.274603 0.263726 0.417102 0.310955 -0.019886 -0.414708 0.118523 -0.242813 0.151213 0.062134 0.130824 -0.449663 0.351893 0.525904 -0.121785 -0.048159 -0.279946 -0.591829 0.154044 0.163471 -0.347110 0.167390 0.327759 -0.297794 -0.189906 0.060636 0.251784 0.467674 -0.174014
vaelplanerad -0.197222 0.679542 -0.211232 0.425178 0.401421 -0.238638 0.028821 -0.342787 0.544779 0.064154 -0.284544 0.322821 0.848985 -0.262788 0.047170 -0.005173 0.267161 -0.777338 0.598730 -0.215002 -0.457490 -0.300121 0.772727 0.012607 -0.253947 -1.033938 0.787691 0.103236 0.420647 -0.037026 0.054505 0.209291 -0.560277 -0.042186 0.069893 -0.698761 0.597569 0.724580 -0.443005 -0.228069 -0.436998 0.235466 0.584899 0.760924 0.362295 1.048702 -1.005116 -0.084373 0.042946 -0.256457 -0.092733 -0.493734 0.110352 -0.086925 0.587927 0.094585 1.161224 0.122392 -0.024082 0.207598 0.366936 0.067221 0.266341 -0.311578 0.367367 -0.680734 1.468835 0.587313 -0.492515 0.174804 -0.325731 -0.519420 -0.382106 0.932861 0.703341 -0.597035 -0.161747 -0.394159 -0.482691 0.265649 0.290481 -0.540924 -0.024202 0.340832 -0.745283 -0.129415 0.087122 -0.776214 0.416288 -0.051417 0.174955 0.342961 0.244311 -0.264376 0.138631 -0.277581 -0.247321 0.480346 0.218754 0.252424
uteplats 0.455619 0.581107 -0.459831 -0.472613 0.500260 -0.044622 0.557100 0.209848 -0.468007 -0.166946 -0.526185 -0.065842 0.566811 0.947741 0.256137 0.081502 -0.208338 0.052427 -0.071857 0.051310 -0.860448 -0.963757 0.368770 -0.704558 -0.468174 -0.443137 0.551596 -0.085986 -0.045373 -0.485988 0.256621 -0.456379 0.323213 -0.706948 0.178184 -0.296718 0.610596 0.056248 -0.034607 -0.364249 -0.130401 -0.342300 -0.179952 0.597591 0.064247 -0.500643 0.570212 -0.046027 0.523322 0.170570 0.518071 -0.170958 0.099863 -0.741258 0.234601 0.872296 0.795693 -0.129245 0.245137 -0.056074 -0.178439 -0.230971 -0.524407 0.625876 0.317560 0.394825 0.342172 0.132122 -0.556085 -0.281021 0.515828 -0.701168 0.003094 -0.035283 -0.502768 -0.150894 -0.081007 0.026763 0.403307 -0.934657 0.045196 -0.231584 0.120551 0.172355 0.101509 -1.030388 -0.130943 -0.605556 0.185518 0.305345 -0.384889 0.029878 -0.286824 -0.482084 0.402968 -0.320777 0.131775 -0.232761 -0.161597 -0.042202
haerlig 0.318567 0.262583 -0.441642 -0.259108 0.564796 0.180375 0.033650 0.350698 0.138135 -0.140042 -0.478224 -0.350642 0.433842 0.274086 -0.152157 0.185728 -0.218659 -0.521292 -0.019997 -0.117089 -0.689489 -0.420010 0.229119 -0.381779 -0.098573 -0.246710 -0.343850 0.627702 0.483130 -0.638661 0.115956 0.025010 0.064897 0.024284 -0.116307 -0.304798 0.428523 0.026050 -0.095644 0.009278 0.099218 0.172637 0.319627 0.527497 0.086665 -0.064469 -0.147511 -0.037403 -0.026476 0.172396 0.238849 -0.010022 0.090251 0.363285 0.265920 -0.519233 0.256017 0.265410 -0.092861 0.091261 -0.371288 -0.585518 -0.304891 0.067619 0.554969 -0.045411 1.080245 0.479435 -0.132052 -0.345081 0.050563 -0.384733 -0.437155 0.294646 0.571953 -0.751536 0.005091 -0.043998 0.049055 0.320136 0.069490 -0.688890 -0.027145 -0.305715 0.071654 -0.497268 0.040578 -0.150915 0.586455 -0.031209 -0.334089 -0.070721 -0.284249 -0.273485 0.538493 -0.015345 -0.137170 -0.413893 -0.036239 0.055064
omraade 0.362235 0.143359 0.565153 0.308391 -0.168468 0.249070 -0.487239 0.401268 -0.336729 0.031953 -0.051670 0.272387 -0.655427 0.128617 -0.567176 0.322793 -0.350429 -0.266675 -0.470149 -0.418176 0.464179 0.198849 -0.306497 -0.065975 0.991280 0.414998 -1.368401 0.740186 -0.244387 0.124505 -0.162409 -0.194382 -0.225310 -0.236806 0.381968 -0.776568 0.342516 -0.023740 0.464062 -0.134383 -0.332399 -0.732766 -0.247876 0.708569 0.548392 -1.143232 -0.310882 -0.576976 -0.894612 -0.155644 -0.716912 0.336690 -0.588339 -0.289121 -0.333591 -0.186007 -0.611613 -0.315931 0.218349 0.239789 -0.344872 0.370309 -0.250775 -0.030210 -0.592334 0.713456 -0.446054 0.159653 -0.573198 -0.619720 -0.541860 0.336488 1.633085 -0.042661 -0.406145 0.869068 -0.149875 -0.690158 -0.401463 0.022538 0.139905 0.184876 0.284089 -0.506779 -0.070549 -0.245737 0.061634 0.298563 -0.023017 0.627387 0.009790 -0.580189 0.258899 0.272130 -0.522980 -0.041979 -0.659552 -0.414226 0.664795 0.337412
ger -1.117324 -0.004842 -0.002976 -0.521141 0.916751 0.671504 -0.106985 -0.413727 0.608016 -0.484635 -0.192503 -0.606777 0.483734 0.021566 0.686682 -0.138290 -0.210507 0.532120 -0.436954 -0.114178 -0.624580 -1.431038 0.064268 -0.384698 -0.574863 0.698602 -0.641621 0.392946 0.026684 -0.883903 0.741261 -0.078756 0.056453 0.587731 -0.342317 -0.426959 0.262095 -0.362436 -0.180048 0.067568 0.213717 0.141051 0.766427 -0.543356 -0.511399 -0.579303 0.104414 0.273658 0.241837 0.177963 0.135264 0.293426 -0.335746 0.606212 0.191946 -0.227129 -0.114013 0.742444 -0.581198 -0.005732 -0.989078 0.017786 -0.208553 0.889475 0.605491 0.160311 0.696436 0.152148 -0.360480 -0.314519 0.248790 -0.294991 -0.567763 0.657826 0.776488 -1.504970 -0.197433 0.363972 0.253569 0.606787 0.496940 0.316932 0.302145 -0.139595 0.405008 -0.512974 0.189885 0.226158 0.363214 -0.346124 -0.551172 0.443880 -0.004238 -0.038268 1.268685 -0.494798 -0.223087 -0.953167 0.151982 -0.407847
tre -0.681315 0.292104 -0.093001 -0.555021 0.779607 -0.299084 0.451327 -0.075631 -0.121152 0.233198 -0.425575 -0.216379 1.079969 -0.341006 -0.006132 -0.071924 0.642289 -0.031721 -0.595784 -0.171513 -1.243930 -0.915673 0.354295 -0.207141 -0.580497 -0.235208 -0.209321 0.447109 -0.261928 -0.795341 0.055362 0.280058 -0.105408 0.730796 -0.679699 -0.417622 0.007140 0.407078 0.162048 -0.048482 -0.189623 -0.191183 0.663581 0.944150 -0.192521 -0.852433 -0.058013 0.553779 0.191504 -0.335679 0.878880 0.642189 -0.508827 -0.209261 0.635231 0.128031 0.517840 0.709603 -0.726614 -0.165503 -0.405927 0.113864 -0.659775 0.450138 0.409319 -0.008984 0.263208 -0.093772 -0.560747 -0.436827 0.764925 -0.657908 -0.129225 -0.214610 0.295178 -1.366976 0.091527 0.084366 0.689954 0.607864 -0.630735 0.363543 1.159498 0.826383 0.145879 -0.810349 0.397813 -0.072030 0.546551 -0.487604 -1.243243 1.017378 -0.211705 -0.276967 1.606682 -0.416767 0.476668 -0.658875 -0.448475 -0.269718
vackra -0.730028 -0.103174 0.185495 -0.399423 0.104137 0.213149 0.085381 -0.328828 0.162288 -0.075463 0.242182 -0.013907 -0.438835 -0.263755 -0.196295 -0.128726 -0.354695 0.264622 -0.204273 -0.194345 0.108230 0.113695 -0.017911 -0.139944 0.353655 0.412480 -1.124468 0.380013 0.155954 -0.171467 0.068425 0.065404 -0.100315 0.833374 -0.249837 0.076391 0.321145 -0.015625 0.282148 -0.068356 0.373961 0.134791 0.166126 -0.164952 -0.448053 -0.268769 -0.116569 0.203582 -0.382948 0.130505 -0.333636 0.389104 -0.359030 0.859355 0.272384 -0.728133 -0.429227 0.263266 -0.322206 0.029387 -0.412067 0.200524 -0.167919 -0.474919 -0.268442 0.185973 0.258597 -0.237173 -0.150807 -0.222301 -0.382840 0.278633 0.497971 0.005668 0.275219 -0.273216 -0.329202 -0.027658 -0.172328 0.558622 -0.044434 0.304574 0.038607 -0.048400 0.573582 -0.088091 0.239837 0.442088 -0.050026 0.087715 -0.236563 0.088732 0.208563 0.399411 0.425083 0.020748 0.141029 -0.053548 -0.064462 0.097171
foervaring 0.403725 -0.509540 -0.263838 -0.800230 0.455264 0.094701 -1.113065 0.545730 0.298782 -0.846995 -0.242462 -0.313711 0.071431 0.350613 0.339407 0.142984 0.161277 1.020570 -1.246840 -0.144333 -0.572272 -1.418944 0.257302 -0.269602 -0.392331 1.706632 -0.686228 0.794183 -0.383375 -0.347708 0.136271 0.014781 0.043611 0.543454 -0.543692 -0.840454 0.012364 -0.154316 -0.606934 0.948210 0.640701 -0.762353 1.411709 0.287111 0.227105 -0.616927 0.272629 0.049040 0.421873 -0.883280 -0.114676 0.550399 -0.514804 -0.799035 -0.844761 0.118707 0.298930 1.286976 -0.989679 0.532339 -0.878175 -0.448432 -0.658820 1.314355 0.689308 0.350958 -0.157908 0.010224 0.543212 -0.230832 1.647505 -0.279660 -0.568352 1.018049 0.685070 -0.420772 0.281469 0.548591 0.655635 -0.076282 0.180661 -0.540299 0.779390 -0.544372 -0.509134 -0.356798 0.346276 -0.859920 1.167430 -0.513573 0.259730 0.525171 -2.170397 -1.108718 1.321915 -0.525559 -0.628556 -1.298627 0.434261 -1.460346
hela -0.441948 -0.022249 -0.440960 -0.706030 0.636528 0.256427 -0.153778 -0.497259 0.365753 -0.033572 0.188083 -0.671680 -0.113753 0.140814 0.339918 -0.116606 -0.237700 0.164341 -0.497293 0.264958 -0.364096 -0.849389 -0.178791 -0.857196 -0.333180 0.287692 -0.278851 0.071404 -0.146976 -0.708167 0.300098 -0.051310 -0.010122 0.524455 -0.198272 -0.254399 0.625072 -0.166953 -0.025142 0.214580 0.361891 -0.317155 0.570853 -0.180419 -0.728676 0.277369 -0.236395 0.021086 0.270956 0.157338 0.004911 0.416225 -0.293332 0.246093 0.174132 0.102244 0.126813 0.107688 -0.171212 -0.289433 -0.452724 -0.149262 -0.420448 0.397273 0.214091 0.048430 0.340464 -0.118222 -0.112977 -0.226338 0.093048 -0.307228 -0.454115 0.249880 0.368892 -0.550289 -0.060352 0.430912 0.101524 0.481478 0.389833 0.184385 -0.229156 0.105500 0.326522 -0.127748 0.412142 0.591191 0.236429 -0.232438 -0.251556 0.297852 0.083935 0.015042 0.902986 -0.140186 0.163586 -0.257820 0.024473 -0.137212
ljusinslaepp -1.537799 0.270424 0.173495 -0.414171 0.803319 0.497202 -0.069925 -0.534675 1.033355 -0.337621 -0.349518 -0.163387 0.612695 -0.304414 0.578855 0.052523 0.274977 0.388147 -0.132995 -0.047401 -0.827028 -1.459959 0.442133 0.149545 -0.082481 0.606445 -0.861075 0.973777 0.605525 -0.763486 0.604016 -0.154882 0.190929 1.252471 -0.727463 -0.829916 0.521162 0.284884 -0.196164 0.101729 0.379136 -0.281913 1.076944 0.587147 -0.512279 -0.540549 -0.432481 0.917867 0.049489 -0.310509 0.575887 0.040054 -0.521021 0.822598 0.628296 -0.447878 0.161207 1.609196 -0.534246 0.298217 -1.282523 0.110495 0.063813 0.749406 0.635546 0.319944 0.814194 0.272966 -0.379701 0.092274 0.139505 -0.273170 -0.671674 1.212801 0.768214 -2.202465 0.093522 0.510904 -0.036452 0.499988 -0.171289 -0.051480 0.745197 0.340726 -0.234636 -0.580040 0.199465 -0.543180 0.824583 -0.544560 -0.930342 0.497452 -0.022176 -0.292543 1.550166 0.105180 -0.437069 -1.086206 0.331817 -0.086877
omraadet 0.138325 -0.361261 -0.157011 -1.004210 -0.212689 -0.678359 -0.136433 0.306471 -0.551472 -0.641864 0.776301 0.006846 -0.760908 0.145897 -0.467790 0.066596 -0.235244 -0.032015 -0.596186 -0.040022 0.537273 0.549363 -0.597376 -0.467977 0.023442 0.393250 -1.400280 0.030111 -0.221525 0.344675 -0.420804 -0.171663 0.490500 -0.234609 0.111201 0.445200 0.295146 -0.047741 0.673831 -0.193037 0.368366 -0.165904 -0.661629 -0.418997 -0.202043 -0.975245 0.985135 0.085234 -0.369730 0.771981 -0.626051 0.435658 -0.822777 -0.061654 -0.455449 -0.653777 -1.009950 -0.481425 0.028530 0.191639 -0.528912 0.302170 -0.817878 -0.292180 -0.706334 1.192646 -0.947262 -0.809023 0.258648 -0.820348 -0.269233 0.358282 0.887494 -1.202135 -0.825968 0.417749 -0.444548 0.577671 0.228964 -0.384630 -0.130909 0.845167 -0.361257 -0.536931 1.115673 0.122671 0.030649 0.868852 -1.001550 0.653742 -0.427565 -0.289869 -0.051436 0.490960 0.208064 0.302989 0.410823 -0.489683 -0.296517 0.267351
populaera -0.075041 0.233813 -0.106723 -0.159807 0.000168 -0.504212 0.488047 -0.258942 -0.236862 0.074774 0.366274 0.390503 -0.441088 -0.253469 -0.167865 -0.140935 -0.145644 -0.143338 0.237970 -0.169320 0.212448 0.508125 0.113446 0.015350 0.125633 -0.082572 -0.148134 -0.111588 0.124904 0.208981 -0.196681 0.019251 -0.250584 0.221770 -0.026086 0.159028 0.327488 0.311651 0.264059 -0.068275 0.204687 0.228314 0.079199 0.182885 -0.326503 0.402969 -0.209975 0.211723 -0.137897 -0.031629 -0.465109 0.029677 -0.166313 0.268838 0.291839 -0.202876 0.061518 0.021324 0.092550 0.025055 0.138217 0.274287 -0.003853 -0.701118 -0.498242 0.097700 0.394676 -0.249571 -0.187919 0.025923 -0.399898 0.051727 0.486348 -0.236444 -0.249323 0.270814 -0.242111 -0.231741 -0.215657 -0.045574 -0.092878 0.027416 0.015012 -0.242374 0.027180 -0.128781 0.155706 -0.011380 -0.137968 0.379453 0.132464 0.392442 0.215829 0.425500 -0.097089 0.032893 0.200178 0.322779 -0.196329 0.289592
minuter 1.078772 -1.265839 0.685376 -0.737051 -0.317099 -0.973164 -1.063871 -0.161750 -0.617741 -0.838224 1.774843 -1.490697 -1.069739 -0.096971 -1.544864 -0.254971 0.004518 -0.040766 0.111691 0.348125 1.414199 1.121331 -0.989250 -0.059417 0.894449 0.457692 -0.593051 -0.334823 -1.254189 0.502606 -1.005028 0.346189 0.674520 -0.202134 0.795669 1.056691 -0.106312 -0.177477 0.464803 0.001267 -0.026273 0.144685 -0.850481 -0.246228 -0.415712 -1.452929 0.491928 -0.414058 -0.682373 1.537293 -0.384026 0.812933 -1.476677 -0.507612 -0.920103 -0.868660 -1.080078 -1.088006 0.366040 0.311837 -0.151579 -0.281065 -0.420703 -0.326779 -1.089794 0.454687 -1.832703 -1.178485 1.449073 -0.374238 -0.613686 1.018153 0.005969 -1.708293 -0.442881 1.285655 0.014513 1.515123 0.723784 0.162085 -0.678714 0.828722 -0.729731 -0.347827 1.206089 1.058200 0.283542 1.752237 -1.798785 0.248770 0.127233 -0.594361 0.371435 0.727928 -0.145868 0.202715 0.543797 -0.488532 0.364734 0.003701
bostad -0.564596 0.273004 0.193271 0.131431 0.338295 0.085429 0.439502 -0.497839 0.560470 0.053497 0.299180 -0.422891 0.498686 0.130257 0.490037 -0.473966 -0.010835 0.135859 0.140576 0.500130 -0.638458 -0.286678 0.147768 -0.077761 -0.017244 -0.431108 0.396083 -0.304703 0.013339 0.111353 0.387049 -0.083556 -0.312641 -0.045778 -0.239239 -0.193959 -0.100289 0.046684 -0.331894 -0.489481 -0.073358 0.491910 -0.078545 0.074745 -0.057663 0.135112 0.281112 0.020830 -0.091091 0.233894 0.033044 0.022832 0.269084 0.500186 0.167592 -0.067177 0.030780 0.029247 0.225320 -0.168201 -0.393718 -0.009720 0.040770 0.050319 0.397810 -0.180761 0.611909 -0.204265 -0.247159 0.289606 -0.016056 0.048580 -0.235088 0.269080 -0.174098 -0.186385 -0.265064 0.011119 -0.048707 -0.329444 -0.185218 0.257208 -0.187441 0.316865 0.262470 -0.287586 -0.054493 -0.023816 -0.169621 -0.088020 -0.501009 -0.062067 0.284037 -0.280832 -0.054416 0.073629 0.050771 -0.139122 -0.157243 0.027217
tar 0.783011 -0.928829 0.419751 -0.559389 -0.318964 -0.579283 -0.729966 -0.071563 -0.502468 -0.824907 1.363615 -1.084454 -0.988775 -0.396084 -1.561212 -0.424217 -0.427060 -0.256434 0.065335 0.460240 0.930656 1.096832 -0.787263 -0.162268 0.905860 1.039920 -0.678650 -0.213777 -1.130741 0.528582 -0.968419 0.048360 0.755641 0.480270 0.640066 0.698914 -0.094660 -0.328223 0.352819 0.493164 0.075267 -0.172740 -0.389592 -0.075890 -0.236720 -1.425757 0.348305 -0.463284 -0.615538 0.981328 -0.257018 1.006692 -1.211697 -0.161433 -0.967187 -0.440074 -1.023161 -0.549585 0.037365 0.199653 -0.490770 -0.353501 -0.146069 -0.109439 -0.739473 0.397802 -1.740701 -0.875678 1.020453 -0.377717 -0.395877 0.811298 0.164050 -1.454668 -0.142048 0.946291 0.139233 1.426663 0.616634 0.635250 -0.761505 0.564377 -0.591489 -0.422543 0.812841 0.909167 0.068147 1.315748 -1.392661 -0.073637 0.046072 -0.357587 -0.009653 0.666919 -0.134972 0.398678 0.397079 -0.250305 0.524852 0.170195
moejlighet 0.235077 0.185563 -0.151237 -0.400179 0.093414 -0.442899 -0.164590 -0.033973 -0.516259 -0.105200 -0.241988 -0.008361 0.351487 0.238941 0.433764 -0.286282 0.244876 0.437277 -0.609717 0.192835 -0.247941 -0.222841 0.155062 -0.221065 -0.422874 -0.273536 0.147927 -0.558617 0.002505 -0.153064 0.078429 0.176856 -0.556983 -0.739317 -0.097531 -0.271319 0.002603 -0.096395 -0.000468 -0.499673 -0.253461 0.163384 -0.354367 -0.206638 0.490422 -0.110157 0.634219 -0.267648 0.107813 -0.238950 -0.278286 0.035948 -0.320982 -0.635941 -0.241390 0.236875 -0.146362 -0.499091 0.028433 -0.083323 -0.254371 0.360521 -0.584047 0.510610 -0.229421 0.261150 0.010752 -0.164208 0.035001 -0.052907 0.239374 -0.623258 0.145735 -0.412802 -0.515407 0.219099 -0.431487 -0.169077 0.285068 -0.571055 0.279013 0.560197 -0.239025 0.062217 0.413941 -0.480646 0.127018 0.162615 -0.115426 0.576267 -0.013179 0.710783 -0.262781 -0.019005 0.352319 -0.442397 0.440600 -0.591670 -0.391842 -0.218048
finner -0.288059 -0.120144 0.007140 -0.447251 0.313704 -0.387459 0.248118 -0.345424 0.087246 -0.512587 0.448120 -0.455312 -0.289113 -0.313044 -0.080062 0.095149 -0.169453 -0.249711 -0.116061 0.046240 -0.211775 -0.003974 -0.123464 -0.496637 0.023442 0.218279 -0.442964 -0.160160 -0.532975 -0.286532 -0.150883 -0.166958 0.264673 0.537603 -0.097046 0.022604 0.307933 -0.227191 0.701737 -0.025670 0.482967 0.082717 0.578031 -0.042510 -0.717342 -0.120394 -0.318322 0.087446 -0.018437 0.220277 0.032353 0.459964 -0.168708 0.567640 0.317835 -0.032574 -0.042450 0.201758 -0.052465 0.250076 -0.295796 0.174420 -0.593851 -0.215373 -0.074249 0.081273 0.091793 -0.435102 -0.122250 -0.276013 0.042061 0.069472 -0.137779 -0.198452 -0.169061 -0.523573 0.137680 0.448291 -0.089107 0.604612 -0.415980 -0.025436 -0.281378 0.293470 0.362799 -0.127425 0.253473 0.247946 -0.257840 -0.126964 -0.537062 0.308392 -0.135129 0.194639 0.444645 0.348405 0.530634 0.008862 -0.056888 0.361453
tvaettmaskin 0.550458 0.010987 -0.300126 -0.575811 0.083653 0.569207 -0.635451 0.659690 -0.428594 -0.609865 -0.453118 -0.519594 0.244794 0.543364 0.233806 -0.120978 0.023688 1.013751 -1.078913 0.346972 -0.903523 -1.218485 0.272845 -0.653282 -0.082312 1.138172 0.276784 0.634511 -0.771801 -0.316287 -0.124290 -0.266518 -0.161985 0.590977 -0.127075 -0.764722 -0.061976 -0.162997 -0.106860 0.747452 0.381486 -0.969266 0.879502 0.294620 0.214076 -1.135799 -0.022404 -0.225662 0.296320 -0.666471 0.551499 0.660450 -0.425723 -0.904044 -0.589211 0.876342 0.509865 0.787154 -1.077037 -0.128547 -0.750094 -0.419788 -0.812722 0.877471 0.618232 -0.073426 -0.386472 0.006933 0.548830 -0.101671 1.660568 -0.209682 -0.164260 0.514579 0.803489 0.105156 0.141740 0.332411 0.654106 0.038063 -0.063243 -0.363824 0.337988 -0.029574 -0.202085 -0.430650 0.013542 -0.303987 0.471427 -0.158261 0.263286 0.079519 -1.760692 -0.682745 0.771067 -0.529050 -0.258822 -0.647002 0.265386 -1.698833
lugnt 0.101057 0.314375 -0.440943 0.016230 -1.053323 0.165576 -0.187168 0.202593 -0.401786 -0.872359 -0.076657 0.322863 -0.348298 0.278228 -1.327714 -0.114794 -0.856312 -0.147534 0.353174 -0.551031 0.388616 0.511208 0.831942 0.086792 0.411899 0.549365 -0.256368 -0.011795 0.640924 0.068017 -0.131915 0.004458 0.466113 0.375045 0.534335 -0.141674 0.184410 0.295235 -0.084943 0.446959 -0.428663 -0.025544 -0.156272 0.456670 0.513469 -1.069874 0.065667 -0.474611 0.110114 0.156882 -0.013789 -0.684245 -0.160588 -0.032661 -0.483748 -0.016472 0.092123 -0.092237 -0.470531 0.506672 -0.388058 0.406679 0.515379 -0.146178 -0.298571 0.409305 0.090382 0.448875 -0.073350 -0.162491 -0.452271 -0.200990 1.138646 0.202340 1.050833 0.083000 -0.665382 0.164112 -0.181796 0.422838 -0.077946 -0.342834 0.452312 0.191357 0.600500 -0.211669 0.136627 -0.747277 -0.331567 0.818092 0.031771 -0.058531 -0.211672 0.747855 -0.663035 -0.742727 0.307913 0.902576 0.217438 -0.410923
mer -0.429516 -0.415409 0.036154 -0.571138 -0.169570 -0.866775 -0.213824 -0.981826 -0.035187 -0.587045 0.941168 -0.491986 0.255748 -0.169743 0.395187 -0.993895 0.276406 0.511219 -0.304207 0.599845 -0.240265 0.117362 -0.827306 0.593048 -0.581065 -0.721357 0.607218 -0.530825 -0.445017 1.120891 0.032353 0.066224 -0.195498 0.404069 -0.464763 0.140136 -0.323721 0.157978 -0.423294 -0.352458 -0.030521 0.030061 -0.887530 -0.962941 0.505835 0.099974 1.049625 0.194876 -0.018010 0.748573 -0.382570 0.940732 0.089506 0.124352 -0.244289 0.774620 -0.629211 -0.735033 -0.294532 -0.546278 -0.330909 0.426673 -0.285406 -0.070523 -0.059231 -0.078355 -0.433442 -0.808920 0.544366 0.801574 0.448024 0.769010 -0.198254 -0.449588 -1.076784 0.594344 -0.500497 0.846477 0.656123 -0.957511 -0.171090 1.458505 -1.079354 0.096583 0.991547 0.772567 -0.697847 0.879425 -0.808659 -0.393966 -0.008039 -0.421574 0.640898 -0.650375 -0.404817 0.385081 -0.104389 -0.418930 -0.426205 -0.122718
hoegt -0.441665 0.487785 0.168657 0.081747 0.023575 0.402781 -0.271635 -0.668362 0.170867 -0.708041 -0.431722 -0.359993 -0.068452 -0.631110 -0.497189 -0.210219 -0.089080 -0.973073 1.022812 -0.211688 -0.664222 -0.198330 0.122416 0.270509 0.176434 -0.093568 0.257029 0.672593 0.881971 -0.925066 0.600492 0.194851 -0.280797 0.738209 0.137371 -0.937863 0.593227 0.096998 0.184286 -0.187517 -0.459134 -0.167021 1.030782 -0.076036 -0.504184 0.190363 -0.625329 0.042989 0.609537 0.154054 0.455234 -0.104204 0.140344 1.074534 0.679815 0.126760 0.476564 0.159838 0.151732 -0.350516 0.265037 0.542523 0.630240 -0.370765 0.213730 -0.069229 1.377911 0.258131 -0.455615 -0.469521 -0.670717 -0.503222 -0.524386 0.261095 0.737619 -0.838368 0.055805 -0.173898 -0.447201 0.820786 0.175598 -0.508993 -0.085539 0.250863 0.048042 -0.012470 0.276206 -0.163445 0.456241 -0.320748 -0.009409 0.320910 0.854772 0.212436 0.654664 0.094824 0.540795 0.083576 -0.458558 0.435330
endast 0.689253 -0.466109 0.345385 -0.345190 -0.215994 -0.455551 -0.561129 0.018363 -0.726986 -0.424893 0.859678 -0.523753 -0.985415 -0.192372 -1.331909 -0.086058 -0.490126 0.022741 0.290536 -0.005783 0.633869 0.883337 -0.263261 -0.093713 0.875971 0.474698 -0.306270 -0.141610 -0.303123 -0.100308 -0.799447 0.238021 0.026337 0.150692 0.284257 0.578527 0.157160 -0.251114 0.540249 0.134847 -0.212805 0.030030 -0.303783 0.016349 -0.195067 -0.648270 -0.009066 -0.304083 -0.173870 0.680382 -0.552879 0.199482 -0.917268 -0.126307 -0.572285 -0.432501 -0.426876 -0.698584 0.269375 0.285370 0.048784 0.117500 -0.049932 -0.093035 -0.868398 0.227354 -0.786033 -0.603082 0.701964 -0.429357 -0.242573 0.316112 0.454478 -1.133723 0.097188 0.841069 -0.224393 0.578042 0.293909 0.162431 -0.315872 0.320982 -0.078281 -0.191518 0.758911 0.536132 0.127894 0.838472 -0.672097 0.372476 0.170404 -0.190640 0.308410 0.576357 -0.186664 0.117966 0.275304 -0.031737 0.343646 0.275226
baesta -0.171332 0.370347 -0.018851 -0.004957 -0.221070 -0.132503 -0.022479 0.026747 -0.066947 -0.540697 0.137518 -0.097010 -0.014798 0.116120 -0.291892 -0.139472 -0.224566 -0.211707 0.260201 0.005385 -0.101859 0.260759 0.284131 -0.031654 0.108768 -0.382851 -0.155518 -0.080179 0.511994 0.036248 0.177135 0.080326 -0.229261 -0.051918 -0.000938 -0.362643 0.291774 -0.168453 0.361368 -0.443468 -0.328892 0.283533 -0.190679 -0.304966 -0.021213 -0.287041 0.115529 -0.067635 -0.223273 0.469328 -0.200571 -0.237837 -0.189208 0.482307 0.259869 -0.213713 -0.105495 -0.264144 0.085423 -0.112222 -0.142531 0.448959 -0.052467 -0.210201 -0.191101 0.090557 0.651450 -0.213308 -0.218837 -0.384749 -0.250845 0.025088 0.512456 0.088228 0.045383 -0.149257 -0.387885 -0.153606 -0.243939 -0.032692 0.089878 0.132641 -0.374192 0.055953 0.578391 -0.214860 -0.088415 -0.044431 -0.351219 0.388950 0.052786 -0.137242 0.438801 0.249821 -0.191962 0.162559 0.160118 0.028191 -0.269859 0.338865
vaelplanerade -0.226328 0.667648 -0.409361 -0.005118 0.656095 -0.185299 0.868543 -0.153233 0.320231 0.340157 0.093984 -0.118632 0.529706 -0.081585 0.601020 -0.310902 0.298674 -0.827847 0.276336 0.170536 -0.832520 -0.142912 0.020490 -0.577795 -0.562581 -0.937662 0.625266 0.245861 0.086436 -0.087224 0.098142 -0.169591 -0.609112 -0.372396 0.095350 -0.162783 0.381433 0.781393 -0.120541 -0.431095 0.133303 0.039777 0.277156 0.382870 -0.486012 1.043112 -0.246076 0.209314 -0.024725 0.397447 0.057709 -0.098185 0.285421 0.425702 0.462336 0.027967 0.722957 -0.240792 0.396812 -0.164712 0.224306 0.077290 -0.625459 -0.632990 0.369961 -0.045252 0.789969 -0.015781 -0.201165 -0.079657 -0.198377 -0.237055 -0.134827 -0.098963 -0.076684 0.084466 -0.378594 -0.418276 -0.487193 -0.605150 -0.230427 -0.061429 -0.205400 0.337490 -0.146215 -0.266302 0.075029 0.055173 -0.227400 0.010189 -0.649136 0.030154 0.346949 -0.244273 0.169376 0.061593 0.120953 0.269175 -0.640980 0.390524
kommer -0.088282 -0.482698 -0.469644 -1.245515 0.691254 -0.446303 -0.048704 -0.383682 -0.462582 -0.408725 0.898861 -0.773371 -0.164899 0.862001 0.441925 -0.352278 -0.339434 0.344178 -0.701641 0.463731 -0.258325 -0.862331 -0.608233 -1.350937 -0.700448 -0.193696 -0.159288 -0.245353 -0.400440 -0.537060 0.082107 0.029897 0.353260 -0.618901 0.062273 0.697232 0.435555 -0.044820 0.440702 -0.367529 -0.101468 0.134748 -0.819244 -0.708876 -0.948261 -0.322396 0.877953 0.275522 -0.096854 1.171785 -0.012035 0.251888 -0.328615 -0.062706 -0.091218 0.095970 -0.198680 -1.046098 0.152476 -0.370706 -0.667697 0.125955 -1.361661 0.483529 -0.316391 0.758628 -0.159150 -0.426333 0.211208 -0.715623 0.460996 -0.176674 0.193396 -0.975514 -0.625030 -0.101478 -0.675022 0.706636 0.477715 -0.973318 0.070138 1.277352 -0.479183 0.030875 1.357566 -0.006957 0.043117 1.609808 -0.812355 0.587299 -0.937980 -0.125686 0.967651 0.300455 0.458072 -0.240462 0.435112 -0.860208 -0.721627 -0.066406
egen 0.498845 0.606865 -0.076847 -0.202087 0.529821 0.600356 0.245066 0.230953 -0.080144 -0.157940 -0.392785 -0.373767 0.559853 0.886205 0.533623 -0.114907 0.074816 0.398377 -0.675807 0.429706 -0.693808 -1.072768 0.073446 -1.058094 -0.294585 0.087173 0.401181 -0.206351 -0.411767 -0.642448 0.321916 -0.071844 -0.368436 -1.006794 0.039037 -0.349515 -0.440253 -0.303739 0.034648 -0.316055 -0.356194 -0.197052 -0.308467 0.260891 0.197638 -0.544442 0.686592 -0.352867 0.124916 -0.162603 0.109886 0.058012 0.154775 -0.467554 -0.428588 0.421176 0.136676 -0.048500 0.170810 -0.168979 -0.513343 0.226037 -0.739393 1.276417 0.348231 0.282215 -0.168660 -0.023591 0.144085 -0.145881 0.809809 -0.293925 0.054215 -0.244660 -0.023868 0.190094 -0.395756 -0.230646 0.181535 -1.067060 -0.156421 0.156970 0.272068 0.298276 0.436472 -0.678400 0.112421 -0.158955 -0.096257 0.670955 -0.589346 0.060944 -0.384042 -0.381247 0.159852 -0.616548 0.120314 -0.254079 -0.040516 -0.540379
foereningen 0.014850 -0.074958 -0.148440 -0.895462 0.084246 -0.132464 -1.040127 0.116955 -0.884535 -0.423799 0.142414 0.716520 -0.393905 0.279709 0.499734 -0.135747 0.010811 1.036492 -0.526877 -0.685369 0.757838 -0.516042 -0.434281 -0.010253 -0.131077 0.514095 -0.725037 0.275298 0.136140 0.118883 -0.032716 0.135690 -0.548493 -0.577766 -0.195496 0.331266 0.303625 -0.158482 0.049092 -0.222175 0.037583 -0.256574 -0.784197 -0.745747 0.230603 -0.326871 0.372488 0.178465 0.243261 -0.054680 -0.695871 0.027773 -0.248385 -0.688582 -0.363292 -0.213245 -0.383152 -0.527956 -0.294979 -0.434724 0.169700 0.380283 -0.168046 0.732178 -0.726053 0.725745 -0.090048 0.175479 0.401882 -0.236919 0.285399 -0.286336 0.300696 -0.509667 0.018956 0.143971 -0.627105 -0.036751 0.148564 -0.977246 1.152698 0.681238 0.487279 -0.909514 0.612728 0.146577 -0.009847 0.700991 -0.141057 0.911994 0.556772 0.097315 0.159724 0.142500 0.270214 -0.983637 -0.519594 -0.929233 -0.309991 -1.016682
materialval -0.810147 0.179273 -0.571469 -0.039318 0.391725 0.027738 0.266666 -0.523140 0.594040 0.155463 0.201581 -0.544799 -0.118756 0.161698 0.898724 -0.468952 -0.361436 0.129880 -0.255813 0.482971 -0.876898 -0.686239 0.295666 -0.740215 -0.426651 -0.166448 0.350932 0.275031 -0.200606 -0.059758 0.401993 -0.660380 -0.098426 0.592487 -0.312206 -0.313114 0.674585 0.328971 -0.754213 0.366360 0.357882 -0.005837 0.520666 0.254181 -0.731002 0.809829 -0.310408 0.026768 0.327137 -0.069670 -0.089495 0.118516 0.359906 0.408279 0.498833 0.520874 0.882717 0.244719 0.070917 0.055294 -0.816085 -0.160272 -0.533156 -0.041095 0.448897 0.005530 0.997390 0.029220 -0.454541 0.342895 -0.075626 -0.346987 -0.271357 0.833129 0.154301 -0.863616 -0.237263 0.194663 -0.171246 -0.150342 -0.061610 -0.123599 -0.392915 0.505255 0.035136 -0.346013 0.101948 0.175098 -0.007323 -0.394753 -0.703636 0.309126 -0.040730 -0.275565 0.360179 -0.525665 0.045218 -0.079007 -0.607475 -0.326955
laegenheter -0.012564 0.478768 -0.466382 -0.759321 0.433455 -0.427646 0.273488 -0.069915 -0.781739 -0.183740 0.560051 -0.268670 0.041021 1.020745 0.927482 -0.666891 0.116560 0.262631 -0.718937 0.311250 -0.526884 -0.793680 -0.194235 -1.287915 -0.692403 -1.150845 0.489518 0.024083 0.243767 -0.164800 0.127336 -0.226500 -0.363772 -1.008391 -0.396299 0.062112 0.649575 0.273967 0.317294 -0.576276 -0.496509 0.018331 -1.184175 -0.312350 -0.433877 0.025217 0.717270 0.471750 -0.012476 0.725896 0.095956 0.255122 0.421620 -0.192846 0.241834 0.388085 0.331060 -1.319453 0.341300 -0.807888 -0.197548 0.441546 -1.254610 0.057639 -0.213349 0.780735 0.553595 -0.049861 0.039927 -0.626469 0.571824 -0.151213 0.660758 -0.915863 -0.823069 -0.175932 -0.821843 -0.030630 0.238286 -1.738101 0.164841 0.825524 -0.406518 0.239840 1.283359 -0.116580 -0.208615 1.245458 -0.810244 0.704103 -1.006029 -0.336927 1.060332 -0.207054 -0.086151 -0.198806 0.268886 -0.920610 -1.736953 0.121450
service 0.667352 -0.237817 0.158377 -0.102110 -0.940754 -0.283877 -0.351931 0.223044 -0.829941 -0.839698 0.405151 0.190402 -1.261539 -0.086517 -1.112723 -0.127919 -0.290118 0.032116 -0.488957 0.328517 1.305154 1.103519 -0.347260 0.158101 0.690268 0.703148 -1.552871 0.204668 -0.305381 1.159202 -0.407263 -0.077746 0.439937 0.621263 0.204299 -0.039354 0.270350 -0.052689 0.349498 0.247929 0.213973 -0.199316 -0.618944 -0.309179 0.653866 -1.393533 0.680594 -0.037800 -0.790390 0.289005 -0.737580 0.831653 -0.838826 0.322244 -0.424639 -0.504289 -1.147050 -0.051195 -0.351725 -0.140843 -0.491394 0.249600 -0.189116 -0.608053 -1.052588 0.461245 -0.980085 -0.616830 0.132148 -0.090753 -0.231270 1.101090 1.237412 -0.629787 -0.937413 0.929829 -0.255848 0.451426 0.514377 -0.049934 -0.472999 0.451147 -0.829620 -0.932734 0.922687 0.614720 -0.495170 0.281126 -1.201949 0.448114 0.750840 -0.706924 -0.452337 0.643277 -0.786323 0.454174 -0.124459 0.278817 0.353750 -0.048457
nya -0.752989 0.078076 -0.233718 -0.585839 -0.089632 0.050391 -0.308443 -0.574912 -0.010562 0.075769 1.027309 -0.364893 -0.526470 0.806158 0.375364 -0.438908 -0.406817 0.783096 -0.782689 0.617053 0.266713 -0.567504 -0.137030 -1.077794 -0.367360 0.046895 0.160732 -0.129334 -0.468238 0.225022 0.144803 -0.313720 -0.121216 0.183251 -0.077387 0.121628 0.527104 0.259428 -0.213761 0.121874 0.012116 -0.238982 -0.477015 -0.490823 -0.833151 0.094844 0.167356 -0.146851 -0.088700 0.432640 -0.230184 0.263550 -0.140526 -0.101837 -0.175771 0.299586 0.429609 -0.757712 -0.086216 -0.581714 -0.360570 0.113110 -0.648181 0.062335 -0.401377 0.149179 -0.187198 -0.455709 0.298102 -0.126067 0.360620 0.165276 0.580496 -0.389215 0.015785 0.298711 -0.791251 0.419338 0.159813 -0.676159 0.347067 0.898128 -0.484616 0.506696 1.061246 0.461052 0.237120 1.235954 -0.736844 0.185634 -0.351432 -0.209279 0.663477 0.153733 0.228948 -0.295909 0.159221 0.038938 -0.727261 -0.567147
gaangavstaand 0.627109 -0.256411 -0.028310 -0.324953 -0.715329 -0.368446 -0.306074 0.316827 -0.926365 -0.852235 0.143668 0.108061 -0.992132 0.061085 -1.180753 0.205600 -0.591345 0.076107 -0.194347 -0.129427 1.067688 1.010622 -0.158562 0.203337 0.589019 0.908723 -1.032196 0.040669 -0.338665 0.389958 -0.467075 -0.102830 0.657424 0.336520 0.418900 0.044741 0.314352 -0.116544 0.561625 0.351738 -0.029863 -0.320767 -0.335388 -0.017863 0.301212 -1.516268 0.245235 -0.248521 -0.485389 0.278351 -0.632571 0.440538 -0.776965 -0.110157 -0.413699 -0.318890 -0.844970 -0.028005 -0.199798 0.366324 -0.197703 0.310314 -0.163792 -0.258201 -1.075672 0.546317 -1.127495 -0.406995 0.379026 -0.281050 -0.271126 0.652679 0.944916 -0.704929 -0.406270 0.655469 -0.118564 0.374735 0.158107 0.187250 -0.398146 0.115101 -0.386846 -0.609846 0.654233 0.183527 -0.145710 0.130041 -0.814407 0.637970 0.368983 -0.274642 -0.458426 0.520625 -0.320711 0.147199 0.239250 0.059317 0.559751 0.144979
pris -0.387562 0.317592 0.231701 0.279440 0.458453 -1.316677 0.184281 -0.894307 0.712737 0.354969 0.897498 0.244804 0.760936 -0.400409 0.169767 -0.208407 0.663237 -1.301620 0.696981 -0.196304 -0.230109 0.073765 -0.240390 0.375953 -0.333835 -2.123996 1.575850 -0.645510 -0.165080 0.398485 -0.270612 -0.049986 -0.199575 -0.817412 -0.106872 0.170858 0.042667 0.674478 -0.102498 -0.377426 -0.406339 0.561192 -0.316037 0.372607 0.010794 1.500516 -0.202956 0.113940 0.442218 0.315785 -0.064050 -0.192104 0.832839 -0.276227 0.263499 0.490917 0.637075 -0.876196 0.625779 0.039299 0.919014 0.560340 0.441981 -0.662069 0.211284 -0.551889 0.810606 0.076045 0.067361 0.554355 -0.635941 -0.276962 -1.049867 -0.256939 -0.436836 -0.062984 -0.060244 0.113598 -0.368689 -0.490504 0.063162 0.109889 -0.032693 0.405584 -0.210926 0.519064 0.036632 0.159206 -0.242799 -0.122030 -0.435418 0.138164 1.376878 -0.567611 -0.305853 0.476566 0.417252 0.215907 -0.505200 0.949889
inglasad 0.669237 0.809427 -0.354643 0.090612 0.013605 0.031629 -0.425253 0.667376 -0.141841 -0.231463 -0.449955 -0.324263 0.367398 0.171371 -0.343858 0.343342 0.457340 -0.494399 0.030273 0.167074 -0.431599 -0.643075 0.317111 -0.109986 0.422155 -0.278115 0.190487 0.749474 0.896904 -0.455754 0.041888 0.200630 -0.205389 -0.231815 0.081621 -1.081989 0.714161 -0.056343 -0.049013 0.018229 -0.077688 -0.539075 0.514001 1.038558 0.655011 -0.353253 -0.859043 -0.110638 0.527251 -0.344328 0.697885 -0.431247 -0.153563 -0.401150 0.133117 -0.125034 0.508152 0.244104 -0.136319 -0.310040 -0.023288 -0.375158 0.384696 0.261153 0.419679 -0.098036 1.485946 0.686484 0.176100 -0.045839 0.458843 -0.716843 -0.815129 0.751561 0.961357 -0.680901 0.588667 -0.058556 0.017870 0.351310 0.193789 -1.261730 0.223360 -0.225623 -0.577814 -0.014899 0.170800 -0.915717 0.676070 -0.061967 0.335693 -0.305812 -0.366930 -0.691993 -0.016252 0.168318 -0.230568 -0.528614 0.056871 -0.013352
matplats 0.913253 0.215298 -0.458267 -0.208576 0.538579 0.083412 -0.562407 0.861577 -0.583040 -0.933728 -0.999660 -0.633377 0.212147 0.354573 0.294865 0.049343 0.213379 0.761141 -0.126948 0.487419 -1.338231 -1.212756 0.755667 -0.304654 -0.057686 0.978359 0.002197 0.963840 -0.001468 -0.428670 0.002298 0.061976 -0.043359 0.902705 -0.006613 -0.824348 0.355286 -0.342503 -0.018803 0.301996 0.493471 -0.515304 1.396881 1.130529 0.129806 -0.911218 -0.345735 0.110982 0.487417 -0.876410 0.558328 0.417408 -0.716445 -0.400608 0.268598 -0.004392 0.407069 1.370903 -0.805530 0.169998 -0.620156 -1.120355 -0.632955 0.669233 0.798790 -0.134700 0.516781 0.460958 0.324364 -0.485309 1.464999 -0.437640 -0.865111 0.711442 0.749549 -0.972233 0.789853 0.267768 1.032668 0.736199 -0.289970 -1.400073 0.392034 -0.349732 -0.643153 -1.003769 0.414552 -0.740023 1.350413 -0.212473 0.717609 0.638065 -2.490989 -0.646453 1.254296 -0.506908 -0.278454 -0.874514 0.372630 -1.178059
rymligt 0.827990 0.275133 -0.618139 -0.065786 0.595156 0.311928 0.022680 0.901522 -0.442877 -0.705408 -0.879799 -0.264019 0.299295 0.254112 0.000591 0.125829 0.377613 0.575006 -0.321107 0.304344 -1.467386 -0.938371 0.497055 -0.463068 -0.332497 0.780364 0.125553 0.722748 -0.296028 -0.329289 -0.299418 -0.017356 0.130557 0.769948 -0.142333 -0.656530 0.081924 -0.328031 0.176384 0.617065 0.297040 -0.406443 1.195335 0.753442 0.191007 -0.903665 -0.341913 0.221108 0.163654 -0.784876 0.356812 0.253061 -0.643391 -0.392862 -0.104198 0.198447 0.371046 1.243083 -1.047169 0.009555 -0.700615 -0.598211 -0.619675 0.618843 0.907246 -0.310333 0.443111 0.399435 0.074847 -0.203655 1.538937 -0.316959 -0.797587 0.904785 0.892071 -0.942347 0.787938 0.202339 0.905070 0.600207 -0.202782 -1.068980 0.644358 -0.299012 -0.533439 -0.868411 -0.056526 -0.786395 0.908189 -0.265582 0.572038 0.718997 -2.076766 -0.562203 0.834370 -0.563198 -0.240517 -0.611437 0.625243 -1.179601
utgaang 1.260951 0.344128 -0.710319 -0.113327 0.886352 0.383643 0.164576 1.128823 -0.293811 -0.830563 -1.018180 -0.466894 0.444487 0.386764 -0.161996 0.332518 0.566788 0.138825 -0.192865 0.496696 -1.580828 -1.370094 0.131218 -0.604065 -0.365177 0.696948 -0.069606 1.014619 0.069523 -0.764763 -0.164162 0.343878 0.262061 0.322734 0.203854 -0.635159 -0.040638 -0.700922 0.588501 0.354498 0.293486 -0.396441 1.253040 0.832044 0.255449 -1.170416 -0.095170 0.294811 0.266497 -0.702820 0.868564 -0.046166 -0.688606 -0.081035 -0.321336 -0.102917 -0.010285 1.322236 -1.079588 -0.325869 -0.795800 -0.708275 -0.535883 1.039973 1.225585 -0.093060 1.096546 0.790439 0.050037 -0.385552 1.662507 -0.515732 -1.394720 0.740560 1.086681 -1.233950 1.117347 0.476340 1.090795 0.808921 -0.236909 -1.474896 0.760154 -0.762371 -0.394457 -0.826088 -0.136983 -0.910206 1.211328 -0.093320 0.555422 0.383357 -1.840352 -0.709018 0.724885 -0.195423 -0.192141 -1.025218 0.886281 -0.876441
ingaar 0.543864 0.098606 0.003013 -0.486158 -0.016979 0.245094 -0.876532 0.151897 -1.039080 -0.072021 -0.143694 0.526066 -0.155966 0.468202 -0.078198 -0.076354 -0.132685 0.775154 -0.362350 -0.588434 0.676386 -0.478961 -0.216315 0.118726 0.157229 0.744153 -0.181968 0.269942 -0.067622 -0.152290 -0.063833 0.159805 -0.380443 -0.401403 0.212882 0.061617 -0.028103 -0.045927 -0.073611 0.195656 -0.175696 -0.413199 -0.541839 -0.018024 0.455583 -0.566446 0.155963 -0.269516 0.305849 -0.373519 0.022757 0.227755 -0.019190 -0.968065 -0.580553 0.198288 -0.033452 -0.397548 -0.391371 -0.394400 0.415621 0.026852 0.140433 0.645571 -0.539260 0.172078 -0.311735 0.501782 0.447714 0.113930 0.498400 -0.304340 0.252389 -0.413091 0.382468 0.739674 -0.339037 -0.192479 0.221253 -0.521572 0.819310 0.081005 0.715375 -0.814736 0.188573 0.102232 0.149014 0.208927 0.289775 0.658086 0.693074 0.052354 -0.060872 0.095915 -0.037188 -0.990841 -0.443411 -0.462123 -0.021960 -1.049708
laag -0.063505 0.272492 0.117552 -0.107389 -0.222391 0.181201 -0.890377 -0.184412 -0.551844 0.359233 0.097637 0.838721 -0.279185 0.345780 -0.012071 -0.190912 -0.205037 0.839125 0.064417 -0.567690 0.850861 -0.211570 0.276396 0.349647 0.525133 0.382423 -0.102424 0.248966 0.616862 0.093532 0.117031 0.273879 -0.799014 -0.173544 -0.138434 -0.120328 0.400029 0.183759 -0.533829 0.031300 -0.347887 -0.150597 -0.515952 0.257007 0.584399 0.280431 -0.554527 -0.150386 0.043496 -0.558811 -0.434337 -0.314020 0.119869 -0.584800 -0.149172 -0.299267 0.191111 -0.270291 -0.175590 -0.422710 0.548836 0.059241 0.761745 0.262617 -0.738098 -0.090255 0.595694 0.633215 0.133924 0.488404 -0.008856 -0.265492 0.383045 0.388180 0.535626 0.414845 -0.350782 -0.545325 -0.347776 -0.514613 1.061056 0.013396 0.703095 -0.570940 -0.158465 0.325797 0.109980 -0.161070 0.423921 0.593240 0.728655 -0.081552 0.471874 -0.010968 -0.400370 -1.019678 -0.725648 -0.293605 0.214227 -0.742511
koeket -0.232257 -0.706048 -0.522910 -1.131297 0.991919 0.699930 -0.274187 0.243217 1.064027 -0.856278 0.075207 -1.239286 0.146498 0.477853 0.707535 0.150886 -0.141757 0.859216 -0.793239 0.539988 -1.656089 -1.821811 -0.191611 -1.057425 -0.376028 1.618617 -0.651254 0.374849 -0.490209 -1.114355 0.629503 -0.028116 0.392428 0.669546 -0.151553 -0.293427 -0.051526 -0.694616 0.017500 0.371424 1.300432 -0.272420 1.731772 -0.561246 -1.027425 -0.385804 0.283840 0.090817 0.029517 -0.204752 0.246413 0.257465 -0.611767 0.406221 -0.605092 0.103068 -0.297448 1.299146 -0.954472 0.207675 -1.824815 -0.641757 -0.838792 1.416009 1.416662 0.247467 0.596243 -0.016266 0.215335 -0.221740 1.150942 -0.574298 -1.289370 1.307647 0.753894 -1.012051 0.524737 0.725005 0.397361 0.730556 0.276031 -0.233443 0.264943 -0.258156 -0.023511 -0.854333 0.232581 -0.216384 1.233280 -0.598161 -0.121308 0.762353 -1.326551 -0.493906 1.563677 -0.315638 -0.008092 -1.361413 0.752247 -1.110327
rymlig 0.477478 0.193192 -0.424652 -0.089441 0.494237 0.111360 -0.448147 0.294184 0.307990 -0.403859 -0.382461 -0.150359 0.554413 0.022868 -0.013386 0.184364 0.100700 -0.239378 -0.350094 -0.229059 -0.832471 -0.799023 0.449240 -0.282689 -0.369914 0.234873 0.224484 0.436620 0.090244 -0.444698 0.022422 0.040026 -0.277067 0.234201 -0.155405 -0.806672 0.078575 0.195946 -0.237310 0.641609 0.017458 -0.261285 1.037624 0.581774 0.409928 0.218364 -0.402717 0.033318 0.403131 -0.446798 0.055574 0.129813 0.011061 -0.282127 -0.241178 0.198351 0.582646 0.643331 -0.513130 0.311516 -0.247971 -0.362723 -0.375092 0.446169 0.871387 -0.275845 0.738713 0.638442 0.246759 -0.020264 0.746913 -0.424626 -0.587868 0.689775 0.960893 -0.341309 0.088006 -0.057288 0.196340 0.367730 0.174922 -0.735169 0.289770 -0.237316 -0.499058 -0.211415 0.143087 -0.539565 1.068780 -0.101309 0.165683 0.485523 -0.933843 -0.571610 0.641922 -0.269434 -0.231911 -0.358116 0.346004 -0.533416
se -0.377692 -0.219728 0.108465 0.082045 0.026282 -1.282999 -0.726613 -0.681387 0.163040 -0.551122 0.698912 -0.270568 0.342447 0.423453 0.448270 -0.541495 0.625699 0.283700 -0.578181 0.898227 0.368583 -0.239191 -0.706563 0.588084 -0.792184 -1.373961 0.545006 -0.453492 -0.826330 1.127600 0.238160 -0.234241 0.074651 -0.075303 -0.628925 0.165416 0.068415 0.339655 -0.547920 -0.633453 -0.381619 0.315614 -0.707724 -1.076809 0.632619 0.148857 1.218504 0.486232 0.146751 0.905065 -0.138158 0.711136 0.239868 -0.048136 -0.044001 0.667164 0.107295 -0.797634 -0.294621 -0.408364 -0.346586 0.365708 -0.584619 -0.062345 0.180112 -0.226067 -0.004313 -0.608421 0.337764 0.719700 0.662858 0.432699 -0.728484 -0.481811 -1.437263 -0.091503 -0.601846 0.980521 1.137224 -1.211237 -0.377784 1.335128 -1.273974 -0.101223 1.011526 0.892834 -0.879760 0.895292 -1.228904 -0.203949 -0.055771 -0.377237 0.701939 -0.477584 -0.004206 0.488551 -0.020776 -0.286775 -0.628079 -0.393032
runt -0.269160 -0.403725 0.565428 -0.352510 -0.410739 -0.335307 -0.121912 -0.346739 -0.209908 -0.601258 0.597872 -0.077049 -1.113671 -0.015414 -0.856572 0.074164 -0.635618 -0.075836 -0.221384 0.091689 1.070375 0.824209 -0.426077 0.171940 0.385146 0.629327 -1.421606 -0.056310 -0.335982 0.291768 0.084636 -0.025113 0.375709 0.322091 0.218952 0.213156 0.143277 -0.211576 0.539262 -0.166372 0.387119 0.282191 -0.260757 -0.800920 -0.261633 -1.028895 0.613638 -0.203113 -0.490523 0.736024 -0.638276 0.480876 -0.601005 0.884501 -0.217401 -0.574096 -0.908657 -0.210039 0.035579 0.055928 -0.268102 0.534089 -0.135954 -0.481182 -0.928928 0.396049 -0.580246 -0.794942 0.044786 -0.295415 -0.470971 0.824652 0.883393 -0.722194 -0.754001 0.643048 -0.485459 0.420892 0.048775 0.241648 -0.394629 0.654042 -0.680323 -0.496196 1.138335 0.253296 -0.067591 0.517238 -0.983092 0.331922 -0.006043 -0.535511 0.186229 0.681448 -0.098945 0.556778 0.381346 0.066901 0.228211 0.415711
fint -0.200997 0.336088 -0.242044 -0.151806 0.326045 0.442928 -0.276434 0.329971 0.283102 -0.144568 -0.369865 -0.343763 0.423401 -0.053808 0.009344 0.030190 -0.193530 -0.104831 0.034969 -0.328770 -1.040930 -0.605182 0.533393 -0.203408 -0.002732 0.201149 0.077357 0.689117 0.229837 -0.590160 0.140018 -0.047925 -0.261131 0.824216 -0.098312 -0.653671 0.328899 0.093283 -0.190241 0.495025 0.218812 -0.243740 0.936740 0.655973 -0.292730 0.067345 -0.674923 -0.110226 0.233008 -0.238688 0.086833 0.206785 -0.052998 0.082345 0.253529 -0.148623 0.415316 0.669263 -0.637528 0.147801 -0.216047 -0.392746 -0.183002 -0.093991 0.682408 -0.292940 0.788023 0.486299 -0.076339 -0.192660 0.105463 -0.356205 -0.304494 0.745536 1.229236 -0.537235 0.195289 -0.348384 -0.117606 0.915221 0.236812 -0.709010 0.410302 0.112994 -0.340389 -0.528362 0.454752 -0.241272 1.014495 -0.180521 -0.021084 0.366603 -0.647396 -0.256980 0.876210 -0.455620 -0.035471 -0.165747 0.152257 -0.477442
m 1.294434 -0.555852 -1.286535 -0.111181 0.924322 -0.667985 -0.216198 0.567388 -1.057912 0.710396 -0.189738 0.094242 0.123285 0.500961 -1.171551 -0.785884 -0.241629 -0.381591 -0.354782 -0.987640 0.694159 1.034359 -0.300876 0.048080 -0.131824 -0.913277 -0.410216 0.693650 -0.168276 -0.224600 -0.658712 -0.665877 0.563707 0.524033 -0.974988 0.734496 1.131146 0.060731 -0.146271 1.084151 -1.263660 -0.761359 -0.653712 0.399104 0.365665 -0.180604 0.316669 1.076982 -0.046387 1.118733 -0.817743 1.502664 -0.131797 -0.758767 0.627180 -0.981786 -0.687645 -0.774228 -0.355446 0.419537 -0.306917 -0.900874 -1.037217 -1.302948 -1.046791 0.811428 -0.686258 0.496717 0.647129 -0.212342 -1.207553 0.349312 -0.148843 -0.486131 -0.403777 -0.545634 0.358860 0.353027 0.618679 -0.284372 0.235017 0.331116 0.424478 -1.022233 0.636891 0.708069 -0.661319 1.392447 0.014088 0.077174 -0.238014 0.213778 0.881833 -0.073546 0.729404 -0.085422 -0.453561 -0.956820 -0.100661 0.950631
promenad 1.069465 -1.112615 0.463001 -0.647087 -0.687228 -0.688335 -0.155086 0.066537 -0.302778 -1.676086 0.939738 -0.664765 -1.722671 -0.578678 -1.208428 0.200540 -0.010233 0.015020 0.268892 -0.035042 1.551473 1.211940 -0.569906 0.098281 0.959536 1.267927 -1.297869 -0.124878 -1.191664 0.382639 -0.760193 0.446111 0.614332 0.563694 0.525553 0.606053 0.611525 -0.358066 1.023773 0.070047 0.466950 0.004796 0.156536 -0.891082 -1.069293 -1.522441 -0.217066 0.085674 -0.688517 0.837654 -0.953180 0.646042 -1.276966 0.688193 0.103152 -1.017888 -0.671733 0.148019 0.174389 0.093152 0.157693 0.522954 -0.492715 -0.700523 -1.645293 0.470577 -0.912803 -1.402955 0.723099 -0.573513 -0.779329 1.305234 0.345962 -1.010383 -0.199209 1.084301 0.172277 0.779972 -0.200649 0.623300 -0.704406 0.173911 -0.810366 -0.361728 1.006852 0.161299 0.354817 0.517602 -1.644020 0.401394 0.640109 -0.168286 -0.205758 0.859138 -0.102517 0.519913 0.656801 0.177207 0.331362 -0.104058
bara -0.066629 -0.344677 0.562272 -0.380364 -0.092056 0.008093 -0.337435 -0.258075 -0.112497 -0.479776 0.977041 -0.794187 -0.803479 0.125267 -1.093163 -0.328639 -0.870404 0.291395 0.184696 0.549198 0.593935 0.574027 -0.473146 -0.038295 0.589829 1.035272 -0.401203 -0.265245 -0.621902 -0.137445 -0.220160 0.025294 0.236883 0.411010 0.334269 0.423398 -0.075172 -0.691194 0.227857 -0.007250 -0.040362 -0.015216 -0.263205 -0.490872 -0.549316 -0.965989 0.294265 -0.522229 -0.370598 0.944234 -0.342768 0.262526 -0.856658 0.490243 -0.658035 -0.340300 -0.644667 -0.409288 0.212961 -0.092947 -0.448810 0.068588 0.150894 0.317532 -0.633583 0.066099 -0.861343 -0.833784 0.498095 -0.224032 -0.072436 0.563814 0.253042 -0.705387 0.049091 0.635215 -0.118578 0.828113 0.149734 0.293869 -0.282572 0.580700 -0.270011 -0.114434 0.772480 0.455191 0.064548 0.736719 -0.772593 -0.036117 -0.060364 -0.464718 0.421276 0.365612 -0.029791 0.269375 0.137802 -0.230286 0.646318 0.269717
stabil -0.096427 -0.060267 0.159606 -0.612027 -0.362173 0.111124 -0.532686 -0.405597 -1.312013 0.549184 0.222230 1.217612 -0.172044 0.756618 -0.768102 -0.154291 -0.704589 1.625126 0.081747 -0.732556 1.337201 -0.278192 0.625342 0.837035 0.771883 0.884144 -0.339773 0.122381 1.062734 -0.080146 0.248808 1.031043 -0.576459 0.592524 -0.043859 -0.030499 0.325025 0.501612 -0.399155 0.224096 -0.549216 0.234832 -0.686080 0.428711 0.841193 -0.404697 -0.495977 0.168195 -0.517441 -0.778948 0.318125 -0.083815 0.008910 -0.499477 -0.061674 -0.262299 0.156388 0.000340 -1.076532 -0.711812 0.729154 -0.026106 1.063400 0.005930 -1.125871 -0.473457 0.904389 0.919871 0.135881 0.902430 0.709117 -0.023999 1.059561 0.505982 0.821989 0.926509 -0.527887 -0.481416 -0.034858 -0.135007 0.955865 0.243030 1.105070 -0.888499 0.049608 0.331260 0.048233 -0.636982 1.066153 0.598869 1.171764 0.021716 1.005127 0.280821 -0.888747 -1.052903 -0.923630 -0.429315 0.442626 -0.922473
vaelskoett 0.355453 0.011915 0.191576 -0.461346 -0.267426 0.105338 -0.762662 -0.100599 -1.049567 0.379507 0.003068 0.990138 -0.061494 0.708865 -0.931885 0.009022 -0.490948 1.114740 0.156959 -0.709078 1.043489 -0.261786 0.553916 0.813273 0.731080 0.631791 -0.247797 0.312766 0.928383 -0.260049 0.096936 0.903847 -0.398621 0.440439 0.023039 -0.129221 0.206121 0.320254 -0.264285 0.282668 -0.441949 0.029701 -0.480272 0.472001 0.768741 -0.498414 -0.529591 -0.023110 -0.253226 -0.697502 0.469476 -0.054713 0.003560 -0.579560 -0.054440 -0.247694 0.198080 0.077838 -0.947282 -0.620556 0.644766 -0.222066 0.975187 -0.020555 -0.825249 -0.427460 0.850886 0.940770 0.281360 0.663465 0.610929 -0.043218 0.650344 0.468032 0.935382 0.745654 -0.228043 -0.366405 -0.024327 0.113456 0.784374 -0.110434 0.924895 -0.763086 -0.016149 0.208162 0.030819 -0.707736 1.129743 0.470593 1.032537 -0.087183 0.681173 0.190860 -0.614653 -0.767609 -0.785658 -0.443964 0.396511 -0.895859
bekvaemt 0.207275 0.360704 0.683964 0.039077 -0.423446 0.226702 -0.254984 -0.078190 -0.988146 -0.255052 0.027597 0.166610 -0.816101 0.592991 -0.924661 -0.102771 -0.881781 0.182689 -0.152617 0.103146 0.340935 0.563268 0.178044 -0.236596 0.432399 0.632306 -0.070128 -0.114425 -0.152977 -0.540792 0.167654 -0.150402 -0.076453 -0.229316 0.452191 -0.259435 -0.245735 -0.423684 0.676148 -0.064685 -0.277143 -0.168907 -0.490201 -0.284168 -0.011104 -0.943532 0.259452 -0.842730 -0.337246 0.204059 -0.186734 -0.102769 -0.204609 -0.076857 -0.391164 0.429067 -0.372061 -0.413713 -0.004465 -0.084349 -0.181597 0.746992 -0.158961 0.114796 -0.819801 0.052399 -0.660690 -0.150218 0.163792 -0.077439 0.140460 0.197191 1.067942 -0.178014 -0.263996 0.786790 -0.282308 -0.433299 -0.153376 -0.427907 -0.272249 0.216182 -0.045139 0.006388 0.568687 -0.037310 0.129592 -0.089518 -0.311688 0.713429 0.253997 -0.097287 0.099257 0.306927 -0.357719 -0.153208 0.575796 0.037702 0.454133 0.195347
natur 0.293631 0.245862 0.085258 0.058229 -0.580749 0.341226 -0.284933 0.212842 -0.294869 -0.729153 0.283624 -0.304711 -0.607508 0.124332 -1.232522 -0.113237 -0.456191 -0.422292 -0.128214 0.095135 0.834583 0.637689 -0.578454 0.167840 1.052171 0.305797 -1.467121 0.271229 0.160680 0.416995 0.148981 -0.217795 0.641373 0.325327 0.642995 -0.254426 0.058502 -0.327660 0.203984 -0.113854 -0.025977 -0.517788 -0.919238 0.182912 0.471342 -1.657638 0.699044 -0.505876 -0.521421 0.986628 -0.121135 0.276854 -0.555984 0.159959 -0.554306 -0.341339 -1.260906 -0.573361 0.300625 -0.097070 -0.600132 0.277065 0.309194 -0.132890 -0.598088 0.929108 -0.606607 -0.254772 -0.525748 -0.390837 -0.879325 0.467670 1.191754 -0.329663 -0.691035 0.479613 -0.030249 0.267739 -0.072432 0.199447 -0.156769 0.126113 -0.240428 -0.494559 0.702259 -0.005900 -0.356133 0.265367 -1.122474 0.541846 0.197544 -0.960604 0.410488 0.965413 -0.949443 0.102931 -0.313527 0.105054 0.253891 0.416886
